%YAML:1.0
my_svm: !!opencv-ml-svm
   svm_type: C_SVC
   kernel: { type:RBF, gamma:5.0625000000000009e-001 }
   C: 6.2500000000000000e+001
   term_criteria: { epsilon:2.2204460492503131e-016, iterations:100 }
   var_all: 32
   var_count: 32
   class_count: 30
   class_labels: !!opencv-matrix
      rows: 1
      cols: 30
      dt: i
      data: [ 0, 1, 2, 3, 4, 5, 6, 7, 8, 9, 10, 11, 12, 13, 14, 15, 16,
          17, 18, 19, 20, 21, 22, 23, 24, 25, 26, 27, 28, 29 ]
   sv_total: 173
   support_vectors:
      - [ 5.00807762e-002, 1.29240707e-001, 1.16316639e-001,
          5.65428101e-002, 9.04684961e-002, 0., 0., 8.07754472e-002,
          8.56219679e-002, 0., 0., 8.40064585e-002, 4.52342480e-002,
          1.22778676e-001, 9.69305336e-002, 4.20032293e-002,
          3.52180928e-001, 1.71243936e-001, 1.69628426e-001,
          3.06946695e-001, 2.71405488e-001, 2.52019376e-001,
          2.13247180e-001, 2.63327956e-001, 9.20840055e-002,
          1.01777062e-001, 2.69789994e-001, 2.53634900e-001,
          2.53634900e-001, 2.22940221e-001, 0., 1. ]
      - [ 4.36432622e-002, 9.67741907e-002, 9.86717269e-002,
          5.31309284e-002, 9.29791257e-002, 1.89753319e-003, 0.,
          9.48766619e-002, 8.91840607e-002, 0., 0., 9.67741907e-002,
          4.74383309e-002, 1.32827327e-001, 9.86717269e-002,
          5.31309284e-002, 2.92220116e-001, 1.89753324e-001,
          1.85958251e-001, 3.32068324e-001, 2.73244768e-001,
          2.31499046e-001, 1.97343454e-001, 2.97912717e-001,
          9.86717269e-002, 1.00569263e-001, 2.35294119e-001,
          2.46679321e-001, 2.69449711e-001, 2.48576850e-001,
          1.89753319e-003, 9.98102486e-001 ]
      - [ 4.36137058e-002, 1.21495329e-001, 1.24610595e-001,
          4.82866056e-002, 8.09968859e-002, 6.23052940e-003, 0.,
          7.32087195e-002, 8.72274116e-002, 3.11526489e-002,
          3.11526489e-002, 7.32087195e-002, 5.29595017e-002,
          9.65732113e-002, 9.34579447e-002, 3.58255468e-002,
          3.38006228e-001, 1.60436139e-001, 2.22741425e-001,
          2.78816193e-001, 2.64797509e-001, 2.55451709e-001,
          2.49221191e-001, 2.30529591e-001, 1.16822429e-001,
          1.32398754e-001, 2.52336442e-001, 2.46105924e-001,
          2.67912775e-001, 2.33644858e-001, 6.85358271e-002,
          9.31464195e-001 ]
      - [ 6.37254938e-002, 1.09477125e-001, 1.04575165e-001,
          6.04575165e-002, 8.49673226e-002, 0., 0., 6.69934675e-002,
          8.33333358e-002, 0., 0., 7.35294148e-002, 6.04575165e-002,
          1.25817001e-001, 1.07843138e-001, 5.88235296e-002,
          3.38235289e-001, 1.51960790e-001, 1.56862751e-001,
          3.52941185e-001, 2.92483658e-001, 2.35294133e-001,
          2.12418303e-001, 2.59803921e-001, 1.22549027e-001,
          1.20915033e-001, 2.58169949e-001, 2.32026145e-001,
          2.69607842e-001, 2.40196079e-001, 0., 1. ]
      - [ 7.17703328e-002, 1.18022330e-001, 1.21212125e-001,
          6.37958497e-002, 7.01754391e-002, 0., 0., 7.33652338e-002,
          6.85805455e-002, 0., 0., 7.49601275e-002, 6.22009560e-002,
          1.06858052e-001, 1.10047847e-001, 5.90111651e-002,
          3.74800622e-001, 1.43540680e-001, 1.43540680e-001,
          3.38118017e-001, 2.72727281e-001, 2.24880382e-001,
          2.31259972e-001, 2.71132380e-001, 1.30781502e-001,
          1.25996798e-001, 2.59968102e-001, 2.58373201e-001,
          2.37639546e-001, 2.44019136e-001, 0., 1. ]
      - [ 6.06060624e-002, 1.13636367e-001, 1.13636367e-001,
          6.06060624e-002, 7.95454532e-002, 0., 0., 7.95454532e-002,
          7.19696954e-002, 0., 0., 7.57575780e-002, 5.87121211e-002,
          1.13636367e-001, 1.13636367e-001, 5.87121211e-002,
          3.48484874e-001, 1.59090906e-001, 1.47727281e-001,
          3.44696969e-001, 2.70833343e-001, 2.27272734e-001,
          2.27272734e-001, 2.74621218e-001, 1.19318187e-001,
          1.19318187e-001, 2.53787875e-001, 2.53787875e-001,
          2.44318187e-001, 2.48106062e-001, 0., 1. ]
      - [ 5.53191490e-002, 1.27659574e-001, 1.27659574e-001,
          5.31914905e-002, 7.02127665e-002, 0., 0., 7.02127665e-002,
          6.59574494e-002, 0., 0., 7.44680837e-002, 4.46808524e-002,
          1.27659574e-001, 1.27659574e-001, 5.53191490e-002,
          3.63829792e-001, 1.40425533e-001, 1.40425533e-001,
          3.55319142e-001, 2.36170217e-001, 2.55319148e-001,
          2.55319148e-001, 2.53191501e-001, 1.10638298e-001,
          9.78723466e-002, 2.53191501e-001, 2.51063824e-001,
          2.38297880e-001, 2.57446796e-001, 0., 1. ]
      - [ 4.02985066e-002, 8.95522349e-003, 0., 0., 9.70149264e-002, 0.,
          0., 4.47761174e-003, 1.32835820e-001, 1.34328365e-001,
          1.34328365e-001, 1.20895520e-001, 8.05970132e-002,
          8.95522386e-002, 8.95522386e-002, 6.71641827e-002,
          4.92537320e-002, 1.01492539e-001, 5.22388101e-001,
          3.26865673e-001, 3.50746274e-001, 2.32835829e-001,
          2.23880604e-001, 1.92537308e-001, 2.41791055e-001,
          2.14925379e-001, 1.46268651e-001, 4.47761174e-003,
          4.37313437e-001, 4.11940306e-001, 2.68656731e-001,
          7.31343269e-001 ]
      - [ 4.14078683e-002, 0., 0., 0., 9.73084867e-002, 0.,
          1.65631473e-002, 2.89855078e-002, 1.57349899e-001,
          1.65631473e-001, 1.82194620e-001, 1.61490679e-001,
          3.31262946e-002, 4.14078683e-002, 4.14078683e-002,
          3.31262946e-002, 4.14078683e-002, 1.42857134e-001,
          6.66666687e-001, 1.49068326e-001, 3.29192549e-001,
          2.07039341e-001, 2.40165636e-001, 2.23602474e-001,
          2.56728768e-001, 2.15320915e-001, 1.38716355e-001,
          4.55486551e-002, 3.97515535e-001, 4.18219447e-001,
          3.64389241e-001, 6.35610759e-001 ]
      - [ 4.65444289e-002, 5.64174913e-003, 0., 0., 9.16784182e-002,
          1.26939351e-002, 1.41043719e-002, 1.97461210e-002,
          1.25528917e-001, 1.39633283e-001, 1.41043723e-001,
          1.26939356e-001, 7.47531727e-002, 7.05218613e-002,
          7.05218613e-002, 6.06488027e-002, 5.21861762e-002,
          1.38222843e-001, 5.33145308e-001, 2.76445687e-001,
          3.38504940e-001, 2.28490829e-001, 2.25669950e-001,
          2.07334280e-001, 2.60930896e-001, 2.28490829e-001,
          1.56558529e-001, 3.38504910e-002, 4.10437226e-001,
          3.99153739e-001, 3.07475299e-001, 6.92524672e-001 ]
      - [ 4.26621176e-002, 0., 0., 0., 1.10921502e-001, 3.41296941e-002,
          6.82593836e-003, 0., 1.36518776e-001, 1.70648471e-001,
          1.43344715e-001, 1.09215014e-001, 2.73037534e-002,
          6.48464188e-002, 8.53242353e-002, 6.82593882e-002,
          4.26621176e-002, 1.51877135e-001, 5.59726954e-001,
          2.45733798e-001, 3.17406148e-001, 2.69624591e-001,
          2.35494882e-001, 1.77474409e-001, 2.88395911e-001,
          2.04778165e-001, 1.87713310e-001, 6.82593836e-003,
          3.99317414e-001, 4.06143367e-001, 3.54948819e-001,
          6.45051181e-001 ]
      - [ 4.16024663e-002, 9.24499240e-003, 0., 0., 1.01694912e-001,
          1.54083204e-002, 1.54083204e-002, 3.23574729e-002,
          1.38674885e-001, 1.54083207e-001, 1.54083207e-001,
          1.38674885e-001, 7.39599392e-002, 4.62249629e-002,
          4.62249629e-002, 3.23574729e-002, 5.08474596e-002,
          1.64869025e-001, 5.85516214e-001, 1.98767334e-001,
          3.55932206e-001, 2.24961489e-001, 2.15716496e-001,
          2.03389823e-001, 2.43451461e-001, 2.43451461e-001,
          1.67950690e-001, 4.77657914e-002, 4.12943006e-001,
          3.71340513e-001, 3.38983059e-001, 6.61016941e-001 ]
      - [ 6.04575165e-002, 1.96078438e-002, 1.63398695e-003,
          1.07843138e-001, 9.31372568e-002, 1.63398695e-003,
          7.84313753e-002, 1.07843138e-001, 8.82352963e-002,
          3.43137272e-002, 7.51634017e-002, 8.16993490e-002,
          7.02614412e-002, 1.14379086e-001, 1.63398695e-003,
          6.37254938e-002, 1.89542487e-001, 2.81045765e-001,
          2.79411763e-001, 2.50000000e-001, 3.12091500e-001,
          1.69934645e-001, 1.56862751e-001, 3.61111104e-001,
          2.00980395e-001, 2.90849686e-001, 1.74836606e-001,
          2.95751631e-001, 3.07189554e-001, 2.22222239e-001,
          1.89542487e-001, 8.10457528e-001 ]
      - [ 8.36575851e-002, 1.36186769e-002, 1.94552529e-003,
          1.05058365e-001, 9.14396867e-002, 0., 8.75486359e-002,
          1.26459137e-001, 8.94941613e-002, 5.05836569e-002,
          7.39299580e-002, 7.78210089e-002, 5.83657585e-002,
          8.17120597e-002, 0., 5.83657585e-002, 2.04280153e-001,
          3.05447459e-001, 2.91828781e-001, 1.98443577e-001,
          3.22957188e-001, 1.45914391e-001, 1.63424119e-001,
          3.67704272e-001, 2.15953305e-001, 3.01556408e-001,
          1.88715950e-001, 3.21011662e-001, 2.80155629e-001,
          2.10116729e-001, 2.12062255e-001, 7.87937701e-001 ]
      - [ 5.41760735e-002, 3.16027105e-002, 0., 1.01580136e-001,
          1.03837475e-001, 0., 8.57787803e-002, 1.21896163e-001,
          8.80361199e-002, 3.83747183e-002, 7.67494366e-002,
          9.02934521e-002, 4.51467261e-002, 1.12866819e-001, 0.,
          4.96613979e-002, 1.87358916e-001, 3.11512411e-001,
          2.93453723e-001, 2.07674950e-001, 2.91196406e-001,
          1.82844251e-001, 1.62528217e-001, 3.63431156e-001,
          1.80586904e-001, 2.70880371e-001, 1.89616263e-001,
          3.09255064e-001, 2.84424394e-001, 2.16704279e-001,
          2.00902939e-001, 7.99097061e-001 ]
      - [ 6.83918670e-002, 2.03327164e-002, 1.84842886e-003,
          9.98151600e-002, 9.79667306e-002, 0., 8.68761539e-002,
          1.31238446e-001, 9.24214423e-002, 4.62107211e-002,
          8.13308656e-002, 7.39371553e-002, 4.43622917e-002,
          9.61183012e-002, 0., 5.91497235e-002, 1.90388173e-001,
          3.16081345e-001, 2.93900192e-001, 1.99630320e-001,
          3.03142339e-001, 1.62661731e-001, 1.70055449e-001,
          3.64140481e-001, 2.08872452e-001, 2.77264327e-001,
          1.86691314e-001, 3.19778174e-001, 2.79112756e-001,
          2.14417741e-001, 2.14417741e-001, 7.85582244e-001 ]
      - [ 4.57665920e-002, 2.05949657e-002, 2.28832942e-003,
          8.69565234e-002, 1.09839819e-001, 4.57665883e-003,
          6.40732273e-002, 1.37299776e-001, 9.61098373e-002,
          2.74599548e-002, 7.78032020e-002, 9.15331841e-002,
          6.63615540e-002, 1.02974832e-001, 2.28832942e-003,
          6.40732273e-002, 1.55606404e-001, 3.15789491e-001,
          2.92906165e-001, 2.35697940e-001, 3.18077803e-001,
          1.55606419e-001, 1.46453083e-001, 3.79862726e-001,
          1.92219675e-001, 2.44851261e-001, 1.80778041e-001,
          2.90617853e-001, 2.92906165e-001, 2.35697940e-001,
          1.73913047e-001, 8.26086998e-001 ]
      - [ 7.28241578e-002, 1.24333929e-002, 3.55239795e-003,
          9.76909399e-002, 9.23623443e-002, 0., 9.59147438e-002,
          1.08348139e-001, 9.94671434e-002, 6.74955621e-002,
          7.28241578e-002, 7.10479543e-002, 6.21669628e-002,
          8.52575526e-002, 0., 5.86145632e-002, 1.86500892e-001,
          2.96625227e-001, 3.10834825e-001, 2.06039071e-001,
          3.26820612e-001, 1.65186509e-001, 1.72291294e-001,
          3.35701585e-001, 2.04262882e-001, 3.23268205e-001,
          1.77619889e-001, 3.05506229e-001, 3.14387232e-001,
          2.02486679e-001, 2.36234456e-001, 7.63765574e-001 ]
      - [ 5.82191795e-002, 2.73972601e-002, 3.42465751e-003,
          9.58904102e-002, 8.90410990e-002, 3.42465751e-003,
          8.04794505e-002, 1.11301370e-001, 8.73287693e-002,
          5.30821905e-002, 8.39041099e-002, 6.84931502e-002,
          6.67808205e-002, 1.07876711e-001, 1.02739725e-002,
          5.30821905e-002, 1.84931502e-001, 2.84246564e-001,
          2.92808235e-001, 2.38013700e-001, 3.01369876e-001,
          1.91780820e-001, 1.78082198e-001, 3.28767121e-001,
          1.98630139e-001, 2.96232879e-001, 1.78082198e-001,
          2.91095883e-001, 3.15068483e-001, 2.15753421e-001,
          2.20890403e-001, 7.79109597e-001 ]
      - [ 7.32436478e-002, 2.24215239e-002, 2.24215239e-002,
          6.42750338e-002, 8.52017924e-002, 2.24215239e-002,
          1.64424516e-002, 8.52017924e-002, 8.66965652e-002,
          6.12854995e-002, 5.53064272e-002, 8.07174891e-002,
          6.57698065e-002, 9.86547098e-002, 1.06128551e-001,
          5.38116582e-002, 1.82361722e-001, 2.09267557e-001,
          2.84005970e-001, 3.24364722e-001, 3.10911804e-001,
          2.04783261e-001, 2.00298950e-001, 2.84005970e-001,
          2.04783261e-001, 2.07772791e-001, 2.03288496e-001,
          1.88340798e-001, 3.12406570e-001, 2.95964122e-001,
          1.55455902e-001, 8.44544113e-001 ]
      - [ 6.60225451e-002, 1.61030591e-002, 2.41545886e-002,
          5.63607067e-002, 9.33977440e-002, 2.25442834e-002,
          1.77133661e-002, 9.50080529e-002, 8.69565234e-002,
          6.28019348e-002, 5.31400964e-002, 8.37359130e-002,
          6.28019348e-002, 9.82286632e-002, 1.03059582e-001,
          5.79710156e-002, 1.62640899e-001, 2.28663445e-001,
          2.86634475e-001, 3.22061181e-001, 3.09178740e-001,
          1.99677944e-001, 1.98067635e-001, 2.93075681e-001,
          1.99677944e-001, 1.99677944e-001, 1.98067635e-001,
          1.93236709e-001, 3.10789049e-001, 2.97906607e-001,
          1.56199679e-001, 8.43800306e-001 ]
      - [ 6.72645718e-002, 1.94319878e-002, 1.64424516e-002,
          7.17488825e-002, 7.77279511e-002, 2.39162929e-002,
          2.54110619e-002, 8.07174891e-002, 8.37070271e-002,
          5.53064272e-002, 5.53064272e-002, 8.22122544e-002,
          5.82959652e-002, 1.09118089e-001, 1.04633778e-001,
          6.87593445e-002, 1.74887896e-001, 2.07772791e-001,
          2.76532143e-001, 3.40807170e-001, 2.86995530e-001,
          2.07772791e-001, 2.01793715e-001, 3.03437978e-001,
          2.15246633e-001, 2.10762337e-001, 1.88340798e-001,
          1.94319889e-001, 3.06427509e-001, 3.10911804e-001,
          1.59940213e-001, 8.40059817e-001 ]
      - [ 6.01202399e-002, 2.40480956e-002, 2.80561130e-002,
          5.61122261e-002, 9.01803598e-002, 2.00400800e-002,
          2.00400800e-002, 1.00200400e-001, 9.41883773e-002,
          5.41082174e-002, 5.41082174e-002, 8.81763548e-002,
          4.60921861e-002, 1.06212422e-001, 1.12224452e-001,
          4.60921861e-002, 1.68336675e-001, 2.30460912e-001,
          2.90581167e-001, 3.10621262e-001, 2.90581167e-001,
          2.04408810e-001, 2.14428857e-001, 2.90581167e-001,
          1.80360720e-001, 1.76352710e-001, 1.94388777e-001,
          2.04408824e-001, 3.00601214e-001, 3.00601214e-001,
          1.48296595e-001, 8.51703405e-001 ]
      - [ 6.97050914e-002, 1.07238609e-002, 1.60857905e-002,
          5.36193028e-002, 9.11528170e-002, 1.07238609e-002,
          5.36193047e-003, 8.04289579e-002, 8.04289579e-002,
          1.01876676e-001, 8.04289579e-002, 8.31099227e-002,
          5.36193028e-002, 1.07238606e-001, 1.17962465e-001,
          3.75335105e-002, 1.50134042e-001, 1.87667564e-001,
          3.45844507e-001, 3.16353887e-001, 2.94906169e-001,
          2.30563000e-001, 2.19839141e-001, 2.54691690e-001,
          1.98391423e-001, 2.14477211e-001, 1.82305634e-001,
          1.55495986e-001, 3.43163550e-001, 3.19034845e-001,
          1.98391423e-001, 8.01608562e-001 ]
      - [ 6.63265288e-002, 1.02040814e-002, 2.04081628e-002,
          5.10204099e-002, 7.90816322e-002, 2.55102050e-002,
          1.27551025e-002, 9.18367356e-002, 7.39795938e-002,
          9.69387740e-002, 8.16326514e-002, 7.39795938e-002,
          5.10204099e-002, 1.07142858e-001, 1.12244897e-001,
          4.59183678e-002, 1.47959188e-001, 2.09183678e-001,
          3.26530606e-001, 3.16326529e-001, 2.70408154e-001,
          2.39795923e-001, 2.27040812e-001, 2.62755096e-001,
          2.19387755e-001, 2.11734697e-001, 1.81122452e-001,
          1.76020414e-001, 3.29081625e-001, 3.13775510e-001,
          2.16836736e-001, 7.83163249e-001 ]
      - [ 6.52591139e-002, 2.49520149e-002, 2.49520149e-002,
          7.10172728e-002, 7.67754316e-002, 1.53550860e-002,
          1.53550860e-002, 8.25335905e-002, 7.86948204e-002,
          5.95009588e-002, 5.95009588e-002, 8.25335905e-002,
          5.95009588e-002, 1.09404989e-001, 1.09404989e-001,
          6.52591139e-002, 1.86180413e-001, 1.90019190e-001,
          2.80230343e-001, 3.43570054e-001, 2.80230314e-001,
          2.09213048e-001, 2.09213048e-001, 3.01343560e-001,
          2.05374271e-001, 2.05374271e-001, 1.82341650e-001,
          1.93857968e-001, 3.07101727e-001, 3.16698641e-001,
          1.49712086e-001, 8.50287914e-001 ]
      - [ 6.66666701e-002, 1.04166670e-002, 1.45833334e-002,
          5.20833321e-002, 8.54166672e-002, 2.70833336e-002,
          2.08333340e-002, 8.54166672e-002, 9.16666687e-002,
          8.95833299e-002, 8.54166672e-002, 8.54166672e-002,
          5.41666672e-002, 8.33333358e-002, 1.02083333e-001,
          4.58333343e-002, 1.43749997e-001, 2.18750000e-001,
          3.52083325e-001, 2.85416663e-001, 2.97916681e-001,
          2.10416660e-001, 2.22916663e-001, 2.68750012e-001,
          2.25000009e-001, 2.16666669e-001, 1.89583331e-001,
          1.72916666e-001, 3.18749994e-001, 3.18749994e-001,
          2.22916663e-001, 7.77083337e-001 ]
      - [ 0., 1.77865606e-002, 1.14624508e-001, 4.74308282e-002,
          9.88142267e-002, 1.44268781e-001, 7.11462423e-002,
          5.92885390e-002, 5.73122539e-002, 2.76679844e-002,
          1.44268781e-001, 1.36363640e-001, 0., 3.95256933e-003,
          2.96442695e-002, 4.74308282e-002, 1.79841891e-001,
          3.73517781e-001, 3.65612656e-001, 8.10276642e-002,
          1.56126484e-001, 1.93675891e-001, 3.59683812e-001,
          2.90513843e-001, 3.35968375e-001, 1.46245062e-001,
          2.60869563e-001, 2.92490125e-001, 8.89328048e-002,
          3.57707530e-001, 3.87351781e-001, 6.12648249e-001 ]
      - [ 0., 7.79727101e-003, 1.01364523e-001, 4.67836261e-002,
          6.43274859e-002, 1.50097460e-001, 7.01754391e-002,
          5.84795326e-002, 8.77192989e-002, 3.11890841e-002,
          1.30604282e-001, 1.42300189e-001, 0., 5.84795326e-003,
          4.09356728e-002, 6.23781681e-002, 1.55945420e-001,
          3.43079925e-001, 3.91812861e-001, 1.09161794e-001,
          1.52046785e-001, 1.94931775e-001, 3.43079925e-001,
          3.09941530e-001, 3.43079925e-001, 1.48148149e-001,
          2.22222209e-001, 2.76803136e-001, 1.24756336e-001,
          3.76218319e-001, 3.82066250e-001, 6.17933750e-001 ]
      - [ 0., 1.31086139e-002, 1.12359554e-001, 4.49438207e-002,
          5.61797768e-002, 1.46067411e-001, 5.61797768e-002,
          6.17977530e-002, 8.42696652e-002, 2.99625471e-002,
          1.36704117e-001, 1.47940069e-001, 0., 7.49063678e-003,
          3.74531820e-002, 6.55430704e-002, 1.70411989e-001,
          3.20224702e-001, 3.98876399e-001, 1.10486887e-001,
          1.40449435e-001, 1.96629211e-001, 3.42696637e-001,
          3.20224702e-001, 3.48314583e-001, 1.31086141e-001,
          2.15355799e-001, 2.75280893e-001, 1.21722847e-001,
          3.87640446e-001, 3.68913859e-001, 6.31086171e-001 ]
      - [ 0., 2.57352944e-002, 1.26838237e-001, 6.43382370e-002,
          9.19117630e-002, 1.26838237e-001, 4.22794111e-002,
          6.80147037e-002, 4.59558815e-002, 2.57352944e-002,
          1.34191170e-001, 1.37867644e-001, 0., 3.67647060e-003,
          3.30882370e-002, 7.35294148e-002, 2.16911763e-001,
          3.29044104e-001, 3.43750000e-001, 1.10294126e-001,
          1.37867644e-001, 1.81985304e-001, 3.36397052e-001,
          3.43750000e-001, 3.34558815e-001, 1.32352948e-001,
          2.44485289e-001, 3.01470578e-001, 7.53676444e-002,
          3.78676474e-001, 3.29044104e-001, 6.70955896e-001 ]
      - [ 0., 3.94477323e-003, 1.06508873e-001, 4.53648902e-002,
          4.93096635e-002, 1.34122282e-001, 8.67850110e-002,
          5.91715984e-002, 9.66469422e-002, 3.94477323e-002,
          1.40039444e-001, 1.28205135e-001, 0., 7.88954645e-003,
          5.71992099e-002, 4.53648902e-002, 1.55818537e-001,
          3.29388559e-001, 4.04339254e-001, 1.10453650e-001,
          1.45956606e-001, 1.85404330e-001, 3.90532553e-001,
          2.78106511e-001, 3.19526613e-001, 1.71597630e-001,
          1.87376723e-001, 2.97830373e-001, 1.43984228e-001,
          3.70808691e-001, 4.00394469e-001, 5.99605501e-001 ]
      - [ 8.49909559e-002, 1.37432188e-001, 4.70162742e-002,
          6.32911399e-002, 7.41410479e-002, 7.95660019e-002,
          1.80831831e-003, 7.05244094e-002, 6.14828207e-002,
          7.59493634e-002, 2.16998197e-002, 8.31826404e-002,
          3.97830009e-002, 1.98915005e-002, 1.04882456e-001,
          3.43580469e-002, 3.32730561e-001, 2.26039782e-001,
          2.42314637e-001, 1.98915005e-001, 2.60397822e-001,
          3.12839061e-001, 1.75406873e-001, 2.51356244e-001,
          2.20614821e-001, 1.80831820e-001, 3.76130193e-001,
          1.82640135e-001, 1.97106689e-001, 2.44122967e-001,
          1.79023504e-001, 8.20976496e-001 ]
      - [ 8.94039720e-002, 1.12582780e-001, 3.31125818e-002,
          6.62251636e-002, 8.27814564e-002, 6.78807944e-002, 0.,
          7.45033100e-002, 8.27814564e-002, 6.78807944e-002,
          3.47682126e-002, 7.78145716e-002, 5.96026480e-002,
          1.82119198e-002, 9.60264876e-002, 3.64238396e-002,
          3.01324487e-001, 2.25165561e-001, 2.63245046e-001,
          2.10264891e-001, 3.14569533e-001, 2.66556293e-001,
          1.63907290e-001, 2.54966885e-001, 2.28476822e-001,
          1.93708599e-001, 3.52649003e-001, 1.73841059e-001,
          2.28476822e-001, 2.45033115e-001, 1.70529798e-001,
          8.29470158e-001 ]
      - [ 8.93416926e-002, 1.09717868e-001, 5.17241396e-002,
          5.95611297e-002, 6.58307225e-002, 7.68025070e-002,
          3.13479616e-003, 7.83699080e-002, 6.73981160e-002,
          7.36677125e-002, 6.26959233e-003, 7.83699080e-002,
          5.79937287e-002, 2.82131657e-002, 1.08150467e-001,
          4.54545468e-002, 3.10344815e-001, 2.24137932e-001,
          2.25705326e-001, 2.39811912e-001, 2.80564249e-001,
          2.88401246e-001, 1.69278994e-001, 2.61755496e-001,
          2.17868343e-001, 1.94357365e-001, 3.41692805e-001,
          1.92789972e-001, 2.27272719e-001, 2.38244519e-001,
          1.59874603e-001, 8.40125382e-001 ]
      - [ 9.75999981e-002, 1.16800003e-001, 5.92000000e-002,
          6.08000010e-002, 7.19999969e-002, 7.84000009e-002, 0.,
          7.36000016e-002, 6.40000030e-002, 7.84000009e-002,
          2.08000001e-002, 7.84000009e-002, 5.27999997e-002,
          2.08000001e-002, 9.44000036e-002, 3.20000015e-002,
          3.34399998e-001, 2.24000007e-001, 2.41600007e-001,
          2.00000003e-001, 2.86399990e-001, 2.94400007e-001,
          1.74400002e-001, 2.44800001e-001, 2.28799999e-001,
          1.92000002e-001, 3.64800006e-001, 1.93599999e-001,
          2.16000006e-001, 2.25600004e-001, 1.77599996e-001,
          8.22400033e-001 ]
      - [ 8.84773657e-002, 1.27572015e-001, 5.96707836e-002,
          5.76131679e-002, 6.58436194e-002, 6.79012313e-002, 0.,
          6.58436194e-002, 7.61316866e-002, 7.61316866e-002,
          4.11522649e-002, 7.61316866e-002, 4.52674888e-002,
          2.05761325e-002, 1.00823045e-001, 3.08641978e-002,
          3.33333343e-001, 1.99588478e-001, 2.69547313e-001,
          1.97530866e-001, 2.75720149e-001, 2.92181075e-001,
          2.01646090e-001, 2.30452672e-001, 2.28395060e-001,
          1.79012343e-001, 3.49794239e-001, 1.83127567e-001,
          2.18107000e-001, 2.48971194e-001, 1.85185179e-001,
          8.14814806e-001 ]
      - [ 9.56790149e-002, 1.18827164e-001, 5.40123470e-002,
          6.01851866e-002, 6.17283955e-002, 7.87037015e-002, 0.,
          6.94444478e-002, 7.40740746e-002, 7.87037015e-002,
          3.24074067e-002, 7.40740746e-002, 5.55555560e-002,
          2.00617276e-002, 9.25925896e-002, 3.39506157e-002,
          3.28703701e-001, 2.09876537e-001, 2.59259254e-001,
          2.02160493e-001, 2.87037045e-001, 2.96296299e-001,
          1.79012343e-001, 2.37654328e-001, 2.40740746e-001,
          1.94444448e-001, 3.54938269e-001, 1.83641985e-001,
          2.28395060e-001, 2.33024687e-001, 1.89814806e-001,
          8.10185194e-001 ]
      - [ 8.96551758e-002, 9.82758626e-002, 3.96551713e-002,
          5.00000007e-002, 8.96551758e-002, 7.58620724e-002,
          5.17241377e-003, 8.44827592e-002, 8.62068981e-002,
          6.55172393e-002, 3.44827585e-003, 8.10344815e-002,
          6.55172393e-002, 2.75862068e-002, 8.96551758e-002,
          4.82758619e-002, 2.77586222e-001, 2.55172431e-001,
          2.36206889e-001, 2.31034487e-001, 3.31034482e-001,
          2.67241389e-001, 1.37931034e-001, 2.63793111e-001,
          2.17241392e-001, 1.86206892e-001, 3.53448272e-001,
          1.79310352e-001, 2.44827583e-001, 2.22413793e-001,
          1.50000006e-001, 8.50000024e-001 ]
      - [ 9.43738669e-002, 1.08892925e-001, 3.26678753e-002,
          6.17059879e-002, 9.80036333e-002, 8.34845752e-002, 0.,
          7.62250423e-002, 9.07441005e-002, 7.62250423e-002,
          1.45190563e-002, 8.34845752e-002, 6.17059879e-002,
          1.45190563e-002, 7.25952834e-002, 3.08529940e-002,
          2.97640651e-001, 2.57713258e-001, 2.64972776e-001,
          1.79673314e-001, 3.44827592e-001, 2.83121586e-001,
          1.19782217e-001, 2.52268612e-001, 2.23230496e-001,
          1.99637026e-001, 3.84755015e-001, 1.70598909e-001,
          2.43194193e-001, 2.01451913e-001, 1.74228668e-001,
          8.25771332e-001 ]
      - [ 9.87261161e-002, 1.14649683e-001, 4.45859879e-002,
          6.05095550e-002, 6.52866215e-002, 7.96178356e-002, 0.,
          7.32484087e-002, 7.96178356e-002, 7.48407617e-002,
          3.18471342e-003, 7.80254751e-002, 6.84713349e-002,
          1.59235671e-002, 9.87261161e-002, 4.45859879e-002,
          3.18471342e-001, 2.18152866e-001, 2.35668778e-001,
          2.27706999e-001, 3.12101901e-001, 2.85031855e-001,
          1.46496817e-001, 2.56369412e-001, 2.26114661e-001,
          2.03821659e-001, 3.58280241e-001, 1.78343952e-001,
          2.38853499e-001, 2.24522293e-001, 1.57643318e-001,
          8.42356682e-001 ]
      - [ 4.66472320e-002, 1.03498541e-001, 1.04956269e-001,
          5.39358594e-002, 7.87172019e-002, 7.14285746e-002,
          1.45772600e-003, 7.28862956e-002, 7.87172019e-002,
          6.70553967e-002, 4.37317789e-003, 7.87172019e-002,
          5.83090372e-002, 3.93586010e-002, 1.00583091e-001,
          3.93586010e-002, 3.09037894e-001, 2.24489793e-001,
          2.28862971e-001, 2.37609327e-001, 2.62390673e-001,
          2.81341106e-001, 2.11370260e-001, 2.44897962e-001,
          1.61807582e-001, 1.80758014e-001, 3.00291538e-001,
          2.33236149e-001, 2.43440241e-001, 2.23032072e-001,
          1.44314870e-001, 8.55685115e-001 ]
      - [ 5.69259971e-002, 1.13851994e-001, 1.02466792e-001,
          5.31309284e-002, 7.21062645e-002, 6.26185983e-002, 0.,
          6.64136633e-002, 7.96963945e-002, 7.02087283e-002,
          7.59013277e-003, 7.21062645e-002, 3.98481973e-002,
          3.41555960e-002, 1.21442124e-001, 4.74383309e-002,
          3.26375723e-001, 2.01138526e-001, 2.29601517e-001,
          2.42884248e-001, 2.48576850e-001, 2.80834913e-001,
          2.31499046e-001, 2.39089191e-001, 1.74573064e-001,
          1.63187861e-001, 3.05502862e-001, 2.22011387e-001,
          2.23908916e-001, 2.48576850e-001, 1.40417457e-001,
          8.59582543e-001 ]
      - [ 4.56490740e-002, 9.98573452e-002, 9.98573452e-002,
          5.56348078e-002, 7.41797462e-002, 7.56062791e-002,
          1.42653356e-003, 7.98858777e-002, 7.70328119e-002,
          7.27532133e-002, 1.42653356e-003, 7.56062791e-002,
          4.56490740e-002, 4.27960046e-002, 9.98573452e-002,
          5.27817421e-002, 3.00998569e-001, 2.31098443e-001,
          2.26818845e-001, 2.41084158e-001, 2.42510706e-001,
          2.91012853e-001, 2.02567756e-001, 2.63908714e-001,
          1.75463632e-001, 1.75463632e-001, 2.95292437e-001,
          2.36804560e-001, 2.38231108e-001, 2.29671896e-001,
          1.51212558e-001, 8.48787427e-001 ]
      - [ 3.96825410e-002, 1.28968254e-001, 1.13095239e-001,
          5.55555560e-002, 7.53968284e-002, 6.74603209e-002,
          3.96825420e-003, 6.74603209e-002, 7.93650821e-002,
          6.34920672e-002, 3.96825420e-003, 7.14285746e-002,
          4.36507948e-002, 2.97619049e-002, 1.13095239e-001,
          4.36507948e-002, 3.37301582e-001, 2.14285731e-001,
          2.18253985e-001, 2.30158731e-001, 2.38095254e-001,
          2.89682537e-001, 2.34126985e-001, 2.38095254e-001,
          1.54761910e-001, 1.66666672e-001, 3.11507940e-001,
          2.40079373e-001, 2.16269851e-001, 2.32142866e-001,
          1.38888896e-001, 8.61111104e-001 ]
      - [ 5.67823350e-002, 1.11987382e-001, 9.77917984e-002,
          5.20504750e-002, 7.09779188e-002, 6.94006309e-002, 0.,
          7.41324946e-002, 7.25552067e-002, 7.09779188e-002, 0.,
          7.09779188e-002, 5.52050471e-002, 3.15457396e-002,
          1.10410094e-001, 5.52050471e-002, 3.18611979e-001,
          2.14511037e-001, 2.14511037e-001, 2.52365917e-001,
          2.55520523e-001, 2.83911675e-001, 2.08201885e-001,
          2.52365947e-001, 1.81388021e-001, 1.78233445e-001,
          3.09148252e-001, 2.23974764e-001, 2.30283916e-001,
          2.36593068e-001, 1.40378550e-001, 8.59621465e-001 ]
      - [ 5.21861762e-002, 1.07193232e-001, 1.12834975e-001,
          5.07757403e-002, 6.62905499e-002, 6.62905499e-002,
          1.41043728e-003, 7.47531727e-002, 6.77009895e-002,
          6.48801103e-002, 1.41043728e-003, 6.77009895e-002,
          5.92383631e-002, 3.80818062e-002, 1.10014103e-001,
          5.92383631e-002, 3.22990119e-001, 2.08744705e-001,
          2.01692522e-001, 2.66572624e-001, 2.45416075e-001,
          2.76445687e-001, 2.25669950e-001, 2.52468258e-001,
          1.79125533e-001, 1.76304653e-001, 2.91960508e-001,
          2.39774331e-001, 2.29901269e-001, 2.38363892e-001,
          1.33991539e-001, 8.66008461e-001 ]
      - [ 5.56438789e-002, 1.11287758e-001, 1.06518283e-001,
          5.72337061e-002, 6.35930076e-002, 6.67726547e-002, 0.,
          7.15421289e-002, 6.83624819e-002, 6.83624819e-002, 0.,
          6.99523017e-002, 5.40540554e-002, 3.65659781e-002,
          1.12877585e-001, 5.72337061e-002, 3.30683619e-001,
          2.01907784e-001, 2.06677258e-001, 2.60731339e-001,
          2.41653427e-001, 2.82988876e-001, 2.19395876e-001,
          2.55961835e-001, 1.79650247e-001, 1.79650247e-001,
          2.97297299e-001, 2.35294119e-001, 2.27344990e-001,
          2.40063593e-001, 1.35135144e-001, 8.64864886e-001 ]
      - [ 3.67132872e-002, 1.22377619e-001, 1.08391605e-001,
          4.72027957e-002, 8.21678340e-002, 6.99300691e-002, 0.,
          6.81818202e-002, 8.21678340e-002, 6.29370660e-002,
          3.49650346e-003, 6.99300691e-002, 5.06993011e-002,
          4.72027957e-002, 1.01398602e-001, 4.72027957e-002,
          3.14685315e-001, 2.20279723e-001, 2.18531474e-001,
          2.46503502e-001, 2.51748264e-001, 3.02447557e-001,
          2.13286713e-001, 2.32517481e-001, 1.57342657e-001,
          1.60839170e-001, 3.11188817e-001, 2.23776221e-001,
          2.43007004e-001, 2.22027972e-001, 1.36363640e-001,
          8.63636374e-001 ]
      - [ 4.71204184e-002, 1.22164048e-001, 1.11692846e-001,
          5.58464229e-002, 7.50436336e-002, 6.98080286e-002,
          1.74520072e-003, 6.28272220e-002, 6.63176253e-002,
          6.45724237e-002, 1.74520072e-003, 6.45724237e-002,
          5.58464229e-002, 2.96684112e-002, 1.20418847e-001,
          5.06108217e-002, 3.36823732e-001, 2.09424078e-001,
          1.97207674e-001, 2.56544501e-001, 2.44328097e-001,
          2.86212921e-001, 2.35602096e-001, 2.33856887e-001,
          1.69284463e-001, 1.78010464e-001, 3.14136118e-001,
          2.32111692e-001, 2.16404885e-001, 2.37347290e-001,
          1.37870848e-001, 8.62129152e-001 ]
      - [ 1.29589632e-001, 3.02375816e-002, 0., 5.61555065e-002,
          1.18790500e-001, 2.15982716e-003, 1.12311013e-001,
          9.93520543e-002, 9.50323939e-002, 1.33909285e-001,
          6.47948161e-002, 0., 1.27429798e-001, 3.02375816e-002, 0., 0.,
          2.15982720e-001, 3.32613409e-001, 2.93736488e-001,
          1.57667384e-001, 4.70842332e-001, 1.96544275e-001,
          1.77105829e-001, 1.55507565e-001, 1.96544275e-001,
          4.29805607e-001, 2.80777544e-001, 2.67818570e-001,
          3.86609048e-001, 6.47948161e-002, 3.13174933e-001,
          6.86825037e-001 ]
      - [ 1.39165014e-001, 2.58449297e-002, 0., 5.96421473e-002,
          1.09343939e-001, 9.94035788e-003, 1.13320082e-001,
          8.34990069e-002, 1.19284295e-001, 1.35188863e-001,
          6.16302192e-002, 0., 1.21272363e-001, 2.18687877e-002, 0., 0.,
          2.24652097e-001, 3.16103399e-001, 3.16103369e-001,
          1.43141150e-001, 4.89065617e-001, 1.92842931e-001,
          1.74950302e-001, 1.43141150e-001, 2.10735589e-001,
          4.29423451e-001, 2.84294248e-001, 2.56461233e-001,
          3.97614300e-001, 6.16302192e-002, 3.20079535e-001,
          6.79920495e-001 ]
      - [ 1.25944585e-001, 1.25944586e-002, 0., 6.80100769e-002,
          1.00755669e-001, 5.03778318e-003, 1.15869015e-001,
          9.06801000e-002, 1.25944585e-001, 1.51133507e-001,
          6.04534000e-002, 0., 1.23425692e-001, 2.01511327e-002, 0., 0.,
          2.06549123e-001, 3.12342554e-001, 3.37531507e-001,
          1.43576831e-001, 4.76070523e-001, 1.88916877e-001,
          1.76322415e-001, 1.58690184e-001, 1.91435769e-001,
          4.58438277e-001, 2.44332492e-001, 2.74559200e-001,
          4.20654923e-001, 6.04534000e-002, 3.32493693e-001,
          6.67506278e-001 ]
      - [ 1.43362835e-001, 0., 5.30973449e-003, 9.38053131e-002,
          9.02654901e-002, 1.76991150e-002, 1.32743359e-001,
          7.25663751e-002, 1.15044251e-001, 1.38053104e-001,
          4.24778759e-002, 0., 1.25663713e-001, 2.30088495e-002, 0., 0.,
          2.42477879e-001, 3.13274324e-001, 2.95575231e-001,
          1.48672566e-001, 4.74336296e-001, 1.78761065e-001,
          1.80530965e-001, 1.66371688e-001, 2.03539819e-001,
          4.90265489e-001, 2.51327455e-001, 3.04424793e-001,
          4.01769906e-001, 4.24778759e-002, 3.30973446e-001,
          6.69026554e-001 ]
      - [ 1.49532706e-001, 2.99065430e-002, 1.86915894e-003,
          9.15887877e-002, 9.53271016e-002, 5.60747646e-003,
          1.25233650e-001, 5.79439253e-002, 1.12149529e-001,
          1.30841121e-001, 4.11214940e-002, 0., 1.32710278e-001,
          2.61682235e-002, 0., 0., 2.72897184e-001, 2.84112155e-001,
          2.84112155e-001, 1.58878505e-001, 4.89719629e-001,
          1.92523360e-001, 1.68224305e-001, 1.49532706e-001,
          1.96261674e-001, 4.80373830e-001, 2.80373812e-001,
          2.76635528e-001, 4.01869148e-001, 4.11214940e-002,
          3.02803755e-001, 6.97196245e-001 ]
      - [ 1.21212125e-001, 2.82828286e-002, 0., 3.83838378e-002,
          1.13131315e-001, 6.06060587e-003, 9.89898965e-002,
          1.05050504e-001, 1.17171720e-001, 1.25252530e-001,
          7.87878782e-002, 0., 1.35353535e-001, 3.23232338e-002, 0., 0.,
          1.87878788e-001, 3.23232323e-001, 3.21212113e-001,
          1.67676777e-001, 4.86868680e-001, 1.91919193e-001,
          1.77777767e-001, 1.43434346e-001, 2.06060603e-001,
          3.97979796e-001, 2.68686861e-001, 2.42424235e-001,
          4.10101026e-001, 7.87878782e-002, 3.09090912e-001,
          6.90909088e-001 ]
      - [ 1.17903933e-001, 0., 2.18340615e-003, 8.29694346e-002,
          9.82532725e-002, 1.09170303e-002, 1.26637548e-001,
          7.64192119e-002, 1.22270741e-001, 1.50655016e-001,
          4.80349362e-002, 0., 1.39737993e-001, 2.40174681e-002, 0., 0.,
          2.03056768e-001, 3.12227070e-001, 3.20960701e-001,
          1.63755462e-001, 4.78165925e-001, 1.85589522e-001,
          1.76855892e-001, 1.59388646e-001, 1.76855892e-001,
          5.00000000e-001, 2.27074236e-001, 2.88209587e-001,
          4.36681211e-001, 4.80349362e-002, 3.36244524e-001,
          6.63755476e-001 ]
      - [ 5.09915017e-002, 7.22379610e-002, 1.07648723e-001,
          5.66572249e-002, 7.22379610e-002, 7.36543909e-002,
          1.41643058e-003, 6.51558042e-002, 7.36543909e-002,
          8.07365403e-002, 2.83286115e-003, 6.79886714e-002,
          4.67422083e-002, 6.51558042e-002, 1.03399433e-001,
          5.94900846e-002, 2.87535399e-001, 2.12464586e-001,
          2.25212470e-001, 2.74787545e-001, 2.43626058e-001,
          2.91784704e-001, 2.15297446e-001, 2.49291778e-001,
          1.86968833e-001, 1.85552403e-001, 2.69121826e-001,
          2.30878189e-001, 2.66288936e-001, 2.33711049e-001,
          1.58640221e-001, 8.41359794e-001 ]
      - [ 4.57516350e-002, 6.01307191e-002, 1.04575165e-001,
          5.09803928e-002, 7.58169964e-002, 7.71241859e-002,
          9.15032718e-003, 7.05882385e-002, 7.71241859e-002,
          7.84313753e-002, 5.22875832e-003, 7.05882385e-002,
          4.96732034e-002, 6.40522912e-002, 1.04575165e-001,
          5.62091507e-002, 2.61437923e-001, 2.32679754e-001,
          2.31372565e-001, 2.74509817e-001, 2.48366028e-001,
          2.79738575e-001, 2.23529413e-001, 2.48366028e-001,
          1.84313729e-001, 1.88235298e-001, 2.58823544e-001,
          2.35294119e-001, 2.69281060e-001, 2.36601308e-001,
          1.69934645e-001, 8.30065370e-001 ]
      - [ 5.29634282e-002, 6.80958405e-002, 1.08448930e-001,
          5.54854982e-002, 7.56620392e-002, 7.18789399e-002,
          6.30517025e-003, 6.68348074e-002, 7.56620392e-002,
          7.94451460e-002, 6.30517025e-003, 6.68348074e-002,
          4.28751558e-002, 5.80075644e-002, 1.05926856e-001,
          5.92686012e-002, 2.84993708e-001, 2.20680952e-001,
          2.28247166e-001, 2.66078174e-001, 2.47162670e-001,
          2.77427495e-001, 2.26986125e-001, 2.48423710e-001,
          1.90416142e-001, 1.84110969e-001, 2.68600255e-001,
          2.37074405e-001, 2.55989909e-001, 2.38335431e-001,
          1.63934425e-001, 8.36065590e-001 ]
      - [ 5.10638282e-002, 7.23404288e-002, 1.07801415e-001,
          5.67375869e-002, 7.09219873e-002, 7.37588629e-002,
          1.41843967e-003, 6.52482286e-002, 7.37588629e-002,
          8.08510631e-002, 2.83687934e-003, 6.80851042e-002,
          4.68085110e-002, 6.52482286e-002, 1.03546098e-001,
          5.95744699e-002, 2.87943244e-001, 2.11347520e-001,
          2.25531906e-001, 2.75177300e-001, 2.42553189e-001,
          2.92198598e-001, 2.15602830e-001, 2.49645382e-001,
          1.87234044e-001, 1.85815603e-001, 2.68085122e-001,
          2.31205672e-001, 2.66666651e-001, 2.34042555e-001,
          1.58865243e-001, 8.41134727e-001 ]
      - [ 2.70270277e-002, 5.01930490e-002, 1.11969113e-001,
          4.24710438e-002, 8.30115825e-002, 1.19691119e-001,
          7.72200758e-003, 6.17760606e-002, 8.30115825e-002,
          1.11969113e-001, 1.93050187e-002, 6.75675645e-002,
          3.47490348e-002, 5.40540554e-002, 9.65250954e-002,
          2.89575290e-002, 2.31660232e-001, 2.72200763e-001,
          2.81853288e-001, 2.14285716e-001, 2.27799222e-001,
          3.35907340e-001, 2.35521242e-001, 2.00772196e-001,
          1.94980696e-001, 1.96911201e-001, 2.79922783e-001,
          2.23938227e-001, 2.83783793e-001, 2.12355211e-001,
          2.58687258e-001, 7.41312742e-001 ]
      - [ 5.21091819e-002, 7.19603002e-002, 1.07940450e-001,
          5.21091819e-002, 7.32009932e-002, 7.07195997e-002,
          7.44416891e-003, 6.69975206e-002, 7.44416863e-002,
          7.81637728e-002, 6.20347401e-003, 6.82382137e-002,
          4.34243195e-002, 6.20347410e-002, 1.07940450e-001,
          5.70719615e-002, 2.84119129e-001, 2.18362287e-001,
          2.27047145e-001, 2.70471483e-001, 2.43176177e-001,
          2.82878399e-001, 2.29528546e-001, 2.44416878e-001,
          1.86104223e-001, 1.81141436e-001, 2.67990083e-001,
          2.34491318e-001, 2.58064508e-001, 2.39454105e-001,
          1.62531018e-001, 8.37468982e-001 ]
      - [ 3.82352956e-002, 6.02941178e-002, 1.07352942e-001,
          6.32352978e-002, 7.64705911e-002, 8.67647082e-002,
          5.88235306e-003, 6.32352978e-002, 7.05882385e-002,
          7.35294148e-002, 5.88235306e-003, 6.61764741e-002,
          5.44117652e-002, 6.02941178e-002, 1.08823530e-001,
          5.88235296e-002, 2.69117653e-001, 2.32352957e-001,
          2.16176480e-001, 2.82352954e-001, 2.39705890e-001,
          2.80882359e-001, 2.27941185e-001, 2.51470596e-001,
          1.89705893e-001, 1.97058827e-001, 2.61764705e-001,
          2.39705890e-001, 2.58823544e-001, 2.39705890e-001,
          1.72058836e-001, 8.27941179e-001 ]
      - [ 4.76190485e-002, 6.53061196e-002, 9.65986401e-002,
          5.44217676e-002, 8.02721083e-002, 8.16326514e-002,
          8.16326495e-003, 7.21088424e-002, 8.02721083e-002,
          9.38775539e-002, 8.16326495e-003, 7.48299286e-002,
          3.67346928e-002, 5.44217676e-002, 9.38775539e-002,
          5.17006814e-002, 2.63945580e-001, 2.42176861e-001,
          2.57142842e-001, 2.36734688e-001, 2.44897962e-001,
          2.95238078e-001, 2.06802726e-001, 2.53061235e-001,
          1.89115644e-001, 1.93197280e-001, 2.74829924e-001,
          2.31292516e-001, 2.65306115e-001, 2.28571430e-001,
          1.91836730e-001, 8.08163285e-001 ]
      - [ 4.79274616e-002, 6.47668391e-002, 9.84455943e-002,
          5.82901537e-002, 7.38341957e-002, 7.38341957e-002,
          6.47668401e-003, 6.73575103e-002, 7.90155455e-002,
          8.03108811e-002, 7.77202053e-003, 7.12435246e-002,
          4.66321260e-002, 6.47668391e-002, 1.06217615e-001,
          5.31088077e-002, 2.69430041e-001, 2.21502587e-001,
          2.38341972e-001, 2.70725399e-001, 2.47409329e-001,
          2.83678770e-001, 2.18911916e-001, 2.50000000e-001,
          1.82642490e-001, 1.91709846e-001, 2.60362685e-001,
          2.30569944e-001, 2.70725399e-001, 2.38341972e-001,
          1.68393776e-001, 8.31606209e-001 ]
      - [ 3.41753326e-002, 4.75482903e-002, 1.04011886e-001,
          4.60624062e-002, 8.02377388e-002, 8.91530439e-002,
          8.91530421e-003, 7.13224337e-002, 8.32095072e-002,
          8.91530439e-002, 8.91530421e-003, 6.98365495e-002,
          4.45765220e-002, 6.24071322e-002, 1.12927191e-001,
          4.75482903e-002, 2.31797919e-001, 2.49628514e-001,
          2.51114398e-001, 2.67459124e-001, 2.42199093e-001,
          2.88261503e-001, 2.34769687e-001, 2.34769672e-001,
          1.79791972e-001, 1.88707277e-001, 2.51114398e-001,
          2.30312034e-001, 2.79346198e-001, 2.39227340e-001,
          1.96136698e-001, 8.03863287e-001 ]
      - [ 5.95238097e-002, 1.04497358e-001, 3.57142873e-002,
          4.89417985e-002, 7.01058209e-002, 3.96825420e-003,
          6.08465597e-002, 7.27513209e-002, 7.01058209e-002,
          3.96825420e-003, 6.21693134e-002, 7.27513209e-002,
          5.82010597e-002, 1.07142858e-001, 1.11111112e-001,
          5.82010597e-002, 2.48677254e-001, 2.07671955e-001,
          2.08994716e-001, 3.34656090e-001, 2.57936507e-001,
          2.19576731e-001, 2.69841284e-001, 2.52645493e-001,
          1.83862433e-001, 1.71957672e-001, 2.38095239e-001,
          2.18253970e-001, 2.39418000e-001, 3.04232806e-001,
          1.30952388e-001, 8.69047642e-001 ]
      - [ 4.25138623e-002, 1.21996306e-001, 2.21811458e-002,
          4.99075800e-002, 7.20887259e-002, 3.69685772e-003,
          5.54528646e-002, 7.20887259e-002, 7.39371553e-002, 0.,
          5.54528646e-002, 6.65434375e-002, 6.28465787e-002,
          1.14602588e-001, 1.29390016e-001, 5.73012941e-002,
          2.36598894e-001, 2.03327179e-001, 1.95933461e-001,
          3.64140481e-001, 2.51386315e-001, 2.40295753e-001,
          2.62476891e-001, 2.45841041e-001, 1.58964872e-001,
          1.68207020e-001, 2.40295753e-001, 1.99630320e-001,
          2.51386315e-001, 3.08687627e-001, 1.14602588e-001,
          8.85397434e-001 ]
      - [ 5.83090372e-002, 1.15160353e-001, 3.79008763e-002,
          5.83090372e-002, 7.14285746e-002, 4.37317789e-003,
          6.55976683e-002, 7.14285746e-002, 6.41399398e-002,
          1.45772600e-003, 6.70553967e-002, 6.70553967e-002,
          5.68513125e-002, 9.91253629e-002, 1.10787176e-001,
          5.10204099e-002, 2.69679308e-001, 2.12827995e-001,
          1.99708462e-001, 3.17784250e-001, 2.50728875e-001,
          2.20116615e-001, 2.81341106e-001, 2.47813419e-001,
          1.80758029e-001, 1.82215750e-001, 2.49271140e-001,
          2.33236164e-001, 2.21574336e-001, 2.95918375e-001,
          1.38483971e-001, 8.61516058e-001 ]
      - [ 4.56621014e-002, 1.09589040e-001, 1.82648394e-002,
          5.32724522e-002, 8.06697085e-002, 1.82648394e-002,
          5.78386597e-002, 7.00152218e-002, 8.06697085e-002,
          4.56620986e-003, 6.69710785e-002, 7.15372935e-002,
          5.32724522e-002, 1.11111112e-001, 1.12633184e-001,
          4.56621014e-002, 2.26788431e-001, 2.26788431e-001,
          2.23744288e-001, 3.22678864e-001, 2.60273963e-001,
          2.43531197e-001, 2.55707771e-001, 2.40487069e-001,
          1.76560119e-001, 1.68949768e-001, 2.54185677e-001,
          1.99391171e-001, 2.49619484e-001, 2.96803653e-001,
          1.47640795e-001, 8.52359235e-001 ]
      - [ 2.91545186e-002, 9.03790072e-002, 2.76967939e-002,
          5.39358594e-002, 7.58017525e-002, 1.74927115e-002,
          7.72594735e-002, 8.30903798e-002, 7.72594735e-002,
          2.91545200e-003, 8.60058293e-002, 8.01749304e-002,
          5.39358594e-002, 1.02040820e-001, 1.02040820e-001,
          4.08163257e-002, 2.01166183e-001, 2.53644317e-001,
          2.46355683e-001, 2.98833817e-001, 2.36151606e-001,
          2.12827995e-001, 2.93002903e-001, 2.58017480e-001,
          1.73469380e-001, 1.88046649e-001, 2.12827995e-001,
          2.41982505e-001, 2.36151606e-001, 3.09037894e-001,
          1.83673471e-001, 8.16326559e-001 ]
      - [ 5.22496365e-002, 1.13207549e-001, 1.88679248e-002,
          6.53120428e-002, 7.40203187e-002, 5.80551522e-003,
          5.37010171e-002, 6.96661845e-002, 7.40203187e-002,
          5.80551522e-003, 5.95065318e-002, 7.54716992e-002,
          5.51523939e-002, 1.16110303e-001, 1.16110303e-001,
          4.49927449e-002, 2.49637157e-001, 2.03193039e-001,
          2.14804068e-001, 3.32365751e-001, 2.55442679e-001,
          2.40928888e-001, 2.48185784e-001, 2.55442679e-001,
          1.62554428e-001, 1.79970965e-001, 2.45283023e-001,
          2.07547173e-001, 2.51088530e-001, 2.96081275e-001,
          1.24818578e-001, 8.75181437e-001 ]
      - [ 3.41614895e-002, 9.16149095e-002, 3.88198756e-002,
          5.59006222e-002, 8.54037255e-002, 1.55279506e-002,
          6.83229789e-002, 8.54037255e-002, 9.00621116e-002,
          1.24223605e-002, 7.45341629e-002, 8.38509351e-002,
          4.81366478e-002, 1.00931674e-001, 8.69565234e-002,
          2.79503111e-002, 2.20496893e-001, 2.54658371e-001,
          2.60869563e-001, 2.63975143e-001, 2.57763982e-001,
          2.20496893e-001, 2.68633544e-001, 2.53105581e-001,
          1.52173907e-001, 1.84782609e-001, 2.26708069e-001,
          2.48447210e-001, 2.51552790e-001, 2.73291945e-001,
          1.70807451e-001, 8.29192579e-001 ]
      - [ 6.27009645e-002, 1.10932477e-001, 1.28617361e-002,
          6.27009645e-002, 7.39549845e-002, 1.60771701e-003,
          6.59163967e-002, 6.59163967e-002, 7.55627006e-002,
          1.60771701e-002, 8.36012885e-002, 7.23472685e-002,
          4.98392284e-002, 1.04501605e-001, 9.64630246e-002,
          4.50160764e-002, 2.49196142e-001, 2.07395494e-001,
          2.47588426e-001, 2.95819938e-001, 2.62057871e-001,
          2.33118966e-001, 2.58842438e-001, 2.45980710e-001,
          1.92926049e-001, 1.94533765e-001, 2.49196142e-001,
          2.07395494e-001, 2.45980710e-001, 2.97427654e-001,
          1.67202577e-001, 8.32797408e-001 ]
      - [ 0., 0., 4.39932309e-002, 9.30626094e-002, 7.78341815e-002,
          1.31979689e-001, 1.18443318e-001, 2.36886628e-002,
          9.13705602e-002, 1.42131984e-001, 1.15059219e-001,
          3.04568522e-002, 0., 0., 4.39932309e-002, 8.79864618e-002,
          1.37055844e-001, 3.51945847e-001, 3.79018605e-001,
          1.31979689e-001, 1.69204742e-001, 2.74111688e-001,
          3.21489006e-001, 2.35194594e-001, 3.35025370e-001,
          3.53637904e-001, 2.09813863e-001, 2.79187828e-001,
          2.33502537e-001, 2.77495772e-001, 5.07614195e-001,
          4.92385805e-001 ]
      - [ 0., 3.18979262e-003, 5.42264767e-002, 1.05263159e-001,
          9.56937820e-002, 1.13237642e-001, 1.06858052e-001,
          4.78468882e-003, 1.24401912e-001, 9.72886756e-002,
          9.72886756e-002, 4.78468882e-003, 0., 1.59489624e-002,
          6.85805455e-002, 1.08452953e-001, 1.62679434e-001,
          3.20574164e-001, 3.23763967e-001, 1.92982465e-001,
          2.20095694e-001, 2.29665071e-001, 3.26953739e-001,
          2.23285496e-001, 3.18979263e-001, 3.09409887e-001,
          2.12121218e-001, 2.71132380e-001, 2.37639546e-001,
          2.79106855e-001, 4.14673030e-001, 5.85326970e-001 ]
      - [ 0., 2.78551527e-003, 3.89972143e-002, 8.91364887e-002,
          7.66016692e-002, 1.22562677e-001, 1.14206128e-001,
          4.59610038e-002, 9.05292481e-002, 1.26740947e-001,
          1.07242338e-001, 2.78551541e-002, 0., 8.35654605e-003,
          5.29247895e-002, 9.61002782e-002, 1.30919218e-001,
          3.59331489e-001, 3.52367699e-001, 1.57381609e-001,
          1.67130917e-001, 2.60445684e-001, 3.13370466e-001,
          2.59052932e-001, 3.25905293e-001, 3.30083549e-001,
          2.01949865e-001, 2.88300842e-001, 2.25626737e-001,
          2.84122556e-001, 4.70752090e-001, 5.29247880e-001 ]
      - [ 0., 3.23101785e-003, 4.68497574e-002, 1.06623590e-001,
          8.56219679e-002, 1.24394186e-001, 1.09854601e-001,
          2.10016146e-002, 9.36995149e-002, 1.26009688e-001,
          1.16316639e-001, 3.23101766e-002, 0., 0., 4.03877236e-002,
          9.36995149e-002, 1.56704366e-001, 3.40872377e-001,
          3.68336022e-001, 1.34087235e-001, 1.79321483e-001,
          2.53634900e-001, 3.13408732e-001, 2.53634900e-001,
          3.34410340e-001, 3.42487872e-001, 2.13247165e-001,
          2.84329563e-001, 2.19709203e-001, 2.82714069e-001,
          4.76575106e-001, 5.23424864e-001 ]
      - [ 0., 3.18471342e-003, 5.41401282e-002, 1.05095543e-001,
          9.55414027e-002, 1.13057323e-001, 1.06687896e-001,
          4.77707013e-003, 1.24203824e-001, 9.71337557e-002,
          9.71337557e-002, 4.77707013e-003, 0., 1.59235671e-002,
          7.00636953e-002, 1.08280256e-001, 1.62420392e-001,
          3.20063680e-001, 3.23248416e-001, 1.94267511e-001,
          2.19745219e-001, 2.29299366e-001, 3.28025460e-001,
          2.22929940e-001, 3.18471342e-001, 3.08917195e-001,
          2.11783439e-001, 2.70700634e-001, 2.37261146e-001,
          2.80254781e-001, 4.14012730e-001, 5.85987270e-001 ]
      - [ 0., 0., 2.86225397e-002, 9.66010764e-002, 6.44007176e-002,
          1.25223607e-001, 1.39534891e-001, 2.14669053e-002,
          9.48121622e-002, 1.48479432e-001, 1.25223607e-001,
          2.50447225e-002, 0., 0., 3.75670828e-002, 9.30232555e-002,
          1.25223622e-001, 3.50626111e-001, 3.93559933e-001,
          1.30590335e-001, 1.59212887e-001, 2.73703039e-001,
          3.30948114e-001, 2.36135960e-001, 3.43470454e-001,
          3.84615391e-001, 1.89624324e-001, 2.86225408e-001,
          2.43291587e-001, 2.80858666e-001, 5.38461566e-001,
          4.61538464e-001 ]
      - [ 0., 7.90513866e-003, 1.58102773e-002, 9.88142267e-002,
          5.33596836e-002, 1.24505930e-001, 1.34387359e-001,
          1.38339922e-002, 1.12648219e-001, 1.60079047e-001,
          1.04743086e-001, 3.95256933e-003, 0., 1.97628466e-003,
          5.92885390e-002, 1.08695649e-001, 1.22529641e-001,
          3.26086968e-001, 3.81422907e-001, 1.69960469e-001,
          1.66007906e-001, 2.94466406e-001, 3.14229250e-001,
          2.25296438e-001, 3.37944657e-001, 3.93280625e-001,
          1.85770750e-001, 2.62845844e-001, 2.74703562e-001,
          2.76679844e-001, 5.23715436e-001, 4.76284593e-001 ]
      - [ 9.05511826e-002, 9.25196856e-002, 9.84251946e-002,
          9.84251946e-002, 6.79133832e-002, 3.54330726e-002,
          2.85433065e-002, 5.21653555e-002, 5.90551198e-002,
          3.05118114e-002, 3.83858271e-002, 5.21653555e-002,
          4.82283458e-002, 7.18503967e-002, 7.18503967e-002,
          6.39763772e-002, 3.79921257e-001, 1.84055120e-001,
          1.80118114e-001, 2.55905509e-001, 2.65748024e-001,
          2.30314970e-001, 2.37204731e-001, 2.66732275e-001,
          2.28346467e-001, 2.05708653e-001, 2.86417335e-001,
          2.77559042e-001, 2.09645674e-001, 2.26377964e-001,
          1.32874012e-001, 8.67125988e-001 ]
      - [ 9.05511826e-002, 9.25196856e-002, 9.84251946e-002,
          9.84251946e-002, 6.79133832e-002, 3.54330726e-002,
          2.85433065e-002, 5.21653555e-002, 5.90551198e-002,
          3.05118114e-002, 3.83858271e-002, 5.21653555e-002,
          4.82283458e-002, 7.18503967e-002, 7.18503967e-002,
          6.39763772e-002, 3.79921257e-001, 1.84055120e-001,
          1.80118114e-001, 2.55905509e-001, 2.65748024e-001,
          2.30314970e-001, 2.37204731e-001, 2.66732275e-001,
          2.28346467e-001, 2.05708653e-001, 2.86417335e-001,
          2.77559042e-001, 2.09645674e-001, 2.26377964e-001,
          1.32874012e-001, 8.67125988e-001 ]
      - [ 9.05511826e-002, 9.25196856e-002, 9.84251946e-002,
          9.84251946e-002, 6.79133832e-002, 3.54330726e-002,
          2.85433065e-002, 5.21653555e-002, 5.90551198e-002,
          3.05118114e-002, 3.83858271e-002, 5.21653555e-002,
          4.82283458e-002, 7.18503967e-002, 7.18503967e-002,
          6.39763772e-002, 3.79921257e-001, 1.84055120e-001,
          1.80118114e-001, 2.55905509e-001, 2.65748024e-001,
          2.30314970e-001, 2.37204731e-001, 2.66732275e-001,
          2.28346467e-001, 2.05708653e-001, 2.86417335e-001,
          2.77559042e-001, 2.09645674e-001, 2.26377964e-001,
          1.32874012e-001, 8.67125988e-001 ]
      - [ 4.71204184e-002, 1.32635251e-001, 1.30890056e-001,
          4.18848172e-002, 1.13438047e-001, 2.96684112e-002,
          2.26876084e-002, 1.08202443e-001, 1.11692846e-001,
          6.98080286e-003, 1.22164050e-002, 1.09947644e-001,
          4.53752168e-002, 1.91972069e-002, 3.49040143e-002,
          3.31588127e-002, 3.52530539e-001, 2.73996502e-001,
          2.40837693e-001, 1.32635251e-001, 3.17626536e-001,
          1.88481674e-001, 2.00698078e-001, 2.93193728e-001,
          1.22164048e-001, 1.16928443e-001, 3.22862118e-001,
          3.03664923e-001, 1.83246076e-001, 1.90226883e-001,
          7.15532303e-002, 9.28446770e-001 ]
      - [ 4.71204184e-002, 1.32635251e-001, 1.30890056e-001,
          4.18848172e-002, 1.13438047e-001, 2.96684112e-002,
          2.26876084e-002, 1.08202443e-001, 1.11692846e-001,
          6.98080286e-003, 1.22164050e-002, 1.09947644e-001,
          4.53752168e-002, 1.91972069e-002, 3.49040143e-002,
          3.31588127e-002, 3.52530539e-001, 2.73996502e-001,
          2.40837693e-001, 1.32635251e-001, 3.17626536e-001,
          1.88481674e-001, 2.00698078e-001, 2.93193728e-001,
          1.22164048e-001, 1.16928443e-001, 3.22862118e-001,
          3.03664923e-001, 1.83246076e-001, 1.90226883e-001,
          7.15532303e-002, 9.28446770e-001 ]
      - [ 1.01226993e-001, 9.81595069e-002, 1.07361965e-001,
          1.10429451e-001, 6.13496937e-002, 0., 0., 6.13496937e-002,
          6.44171759e-002, 0., 0., 6.59509227e-002, 5.67484647e-002,
          1.07361965e-001, 1.07361965e-001, 5.82822077e-002,
          4.17177916e-001, 1.22699387e-001, 1.30368099e-001,
          3.29754591e-001, 2.83742338e-001, 2.05521464e-001,
          2.14723930e-001, 2.96012282e-001, 1.59509197e-001,
          1.67177916e-001, 2.60736197e-001, 2.79141098e-001,
          2.28527606e-001, 2.31595099e-001, 0., 1. ]
      - [ 9.98463929e-002, 9.83102918e-002, 1.07526883e-001,
          1.10599078e-001, 6.14439324e-002, 0., 0., 6.14439324e-002,
          6.45161271e-002, 0., 0., 6.60522282e-002, 5.68356365e-002,
          1.07526883e-001, 1.07526883e-001, 5.83717376e-002,
          4.16282654e-001, 1.22887865e-001, 1.30568355e-001,
          3.30261141e-001, 2.82642096e-001, 2.05837175e-001,
          2.15053767e-001, 2.96466976e-001, 1.58218130e-001,
          1.67434722e-001, 2.59600610e-001, 2.79569894e-001,
          2.28878647e-001, 2.31950849e-001, 0., 1. ]
      - [ 9.98463929e-002, 9.83102918e-002, 1.07526883e-001,
          1.10599078e-001, 6.14439324e-002, 0., 0., 6.14439324e-002,
          6.45161271e-002, 0., 0., 6.60522282e-002, 5.68356365e-002,
          1.07526883e-001, 1.07526883e-001, 5.83717376e-002,
          4.16282654e-001, 1.22887865e-001, 1.30568355e-001,
          3.30261141e-001, 2.82642096e-001, 2.05837175e-001,
          2.15053767e-001, 2.96466976e-001, 1.58218130e-001,
          1.67434722e-001, 2.59600610e-001, 2.79569894e-001,
          2.28878647e-001, 2.31950849e-001, 0., 1. ]
      - [ 1.01226993e-001, 9.81595069e-002, 1.07361965e-001,
          1.10429451e-001, 6.13496937e-002, 0., 0., 6.13496937e-002,
          6.44171759e-002, 0., 0., 6.59509227e-002, 5.67484647e-002,
          1.07361965e-001, 1.07361965e-001, 5.82822077e-002,
          4.17177916e-001, 1.22699387e-001, 1.30368099e-001,
          3.29754591e-001, 2.83742338e-001, 2.05521464e-001,
          2.14723930e-001, 2.96012282e-001, 1.59509197e-001,
          1.67177916e-001, 2.60736197e-001, 2.79141098e-001,
          2.28527606e-001, 2.31595099e-001, 0., 1. ]
      - [ 9.98463929e-002, 9.83102918e-002, 1.07526883e-001,
          1.10599078e-001, 6.14439324e-002, 0., 0., 6.14439324e-002,
          6.45161271e-002, 0., 0., 6.60522282e-002, 5.68356365e-002,
          1.07526883e-001, 1.07526883e-001, 5.83717376e-002,
          4.16282654e-001, 1.22887865e-001, 1.30568355e-001,
          3.30261141e-001, 2.82642096e-001, 2.05837175e-001,
          2.15053767e-001, 2.96466976e-001, 1.58218130e-001,
          1.67434722e-001, 2.59600610e-001, 2.79569894e-001,
          2.28878647e-001, 2.31950849e-001, 0., 1. ]
      - [ 1.15340255e-001, 1.10726647e-001, 1.15340255e-001,
          1.10726647e-001, 7.15109557e-002, 3.69088799e-002,
          2.99884658e-002, 6.92041516e-002, 6.92041516e-002,
          3.46020758e-002, 2.30680499e-002, 6.92041516e-002,
          6.45905435e-002, 1.03806229e-002, 9.22721997e-003,
          5.99769317e-002, 4.52133805e-001, 2.07612455e-001,
          1.96078435e-001, 1.44175321e-001, 3.20645899e-001,
          1.92618221e-001, 1.77623987e-001, 3.09111893e-001,
          2.35294119e-001, 2.39907727e-001, 3.34486723e-001,
          3.25259507e-001, 1.78777397e-001, 1.61476359e-001,
          1.24567471e-001, 8.75432551e-001 ]
      - [ 1.15340255e-001, 1.10726647e-001, 1.15340255e-001,
          1.10726647e-001, 7.15109557e-002, 3.69088799e-002,
          2.99884658e-002, 6.92041516e-002, 6.92041516e-002,
          3.46020758e-002, 2.30680499e-002, 6.92041516e-002,
          6.45905435e-002, 1.03806229e-002, 9.22721997e-003,
          5.99769317e-002, 4.52133805e-001, 2.07612455e-001,
          1.96078435e-001, 1.44175321e-001, 3.20645899e-001,
          1.92618221e-001, 1.77623987e-001, 3.09111893e-001,
          2.35294119e-001, 2.39907727e-001, 3.34486723e-001,
          3.25259507e-001, 1.78777397e-001, 1.61476359e-001,
          1.24567471e-001, 8.75432551e-001 ]
      - [ 1.11922137e-001, 1.24087594e-001, 1.48418486e-001,
          1.07055962e-001, 9.73236039e-002, 7.29926974e-002,
          2.43309010e-002, 0., 9.73236039e-002, 7.29926974e-002,
          3.89294401e-002, 0., 6.81265220e-002, 2.67639905e-002,
          9.73236002e-003, 0., 4.91484165e-001, 1.94647208e-001,
          2.09245741e-001, 1.04622871e-001, 3.74695867e-001,
          2.96836972e-001, 2.21411183e-001, 1.07055962e-001,
          2.23844275e-001, 2.72506088e-001, 4.06326026e-001,
          2.79805362e-001, 2.65206814e-001, 4.86617982e-002,
          2.09245741e-001, 7.90754259e-001 ]
      - [ 1.22580647e-001, 1.35483876e-001, 1.35483876e-001,
          1.33333340e-001, 8.60215053e-002, 6.45161271e-002,
          2.15053763e-002, 0., 8.60215053e-002, 6.45161271e-002,
          2.15053763e-002, 0., 6.88172057e-002, 4.73118275e-002,
          1.29032256e-002, 0., 5.26881754e-001, 1.72043011e-001,
          1.72043011e-001, 1.29032254e-001, 3.63440871e-001,
          3.11827958e-001, 1.91397861e-001, 1.33333340e-001,
          2.08602145e-001, 2.88172036e-001, 4.08602148e-001,
          2.90322602e-001, 2.66666651e-001, 3.44086029e-002,
          1.72043011e-001, 8.27957034e-001 ]
      - [ 1.22621566e-001, 1.33192390e-001, 1.41649053e-001,
          1.22621566e-001, 8.66807625e-002, 4.86257933e-002,
          2.74841432e-002, 0., 8.87949243e-002, 6.34249449e-002,
          4.22832966e-002, 0., 7.18816072e-002, 2.95983087e-002,
          2.11416483e-002, 0., 5.20084560e-001, 1.62790701e-001,
          1.94503158e-001, 1.22621566e-001, 3.69978845e-001,
          2.74841428e-001, 2.32558146e-001, 1.22621566e-001,
          2.13530660e-001, 2.85412252e-001, 3.91120523e-001,
          2.91754752e-001, 2.53699780e-001, 6.34249449e-002,
          1.81818172e-001, 8.18181813e-001 ]
      - [ 1.06280193e-001, 1.44927531e-001, 1.44927531e-001,
          1.11111112e-001, 9.66183543e-002, 5.31400964e-002,
          2.65700482e-002, 1.20772943e-002, 9.66183543e-002,
          7.24637657e-002, 2.41545886e-002, 0., 6.76328465e-002,
          3.38164233e-002, 9.66183562e-003, 0., 5.07246375e-001,
          1.88405797e-001, 1.93236709e-001, 1.11111104e-001,
          3.67149740e-001, 3.04347813e-001, 2.05314010e-001,
          1.23188406e-001, 1.83574885e-001, 2.77777761e-001,
          4.00966167e-001, 2.94685990e-001, 2.70531386e-001,
          3.38164233e-002, 1.76328495e-001, 8.23671460e-001 ]
      - [ 1.06280193e-001, 1.44927531e-001, 1.44927531e-001,
          1.11111112e-001, 9.66183543e-002, 5.31400964e-002,
          2.65700482e-002, 1.20772943e-002, 9.66183543e-002,
          7.24637657e-002, 2.41545886e-002, 0., 6.76328465e-002,
          3.38164233e-002, 9.66183562e-003, 0., 5.07246375e-001,
          1.88405797e-001, 1.93236709e-001, 1.11111104e-001,
          3.67149740e-001, 3.04347813e-001, 2.05314010e-001,
          1.23188406e-001, 1.83574885e-001, 2.77777761e-001,
          4.00966167e-001, 2.94685990e-001, 2.70531386e-001,
          3.38164233e-002, 1.76328495e-001, 8.23671460e-001 ]
      - [ 1.22621566e-001, 1.33192390e-001, 1.41649053e-001,
          1.22621566e-001, 8.66807625e-002, 4.86257933e-002,
          2.74841432e-002, 0., 8.87949243e-002, 6.34249449e-002,
          4.22832966e-002, 0., 7.18816072e-002, 2.95983087e-002,
          2.11416483e-002, 0., 5.20084560e-001, 1.62790701e-001,
          1.94503158e-001, 1.22621566e-001, 3.69978845e-001,
          2.74841428e-001, 2.32558146e-001, 1.22621566e-001,
          2.13530660e-001, 2.85412252e-001, 3.91120523e-001,
          2.91754752e-001, 2.53699780e-001, 6.34249449e-002,
          1.81818172e-001, 8.18181813e-001 ]
      - [ 1.11922137e-001, 1.24087594e-001, 1.48418486e-001,
          1.07055962e-001, 9.73236039e-002, 7.29926974e-002,
          2.43309010e-002, 0., 9.73236039e-002, 7.29926974e-002,
          3.89294401e-002, 0., 6.81265220e-002, 2.67639905e-002,
          9.73236002e-003, 0., 4.91484165e-001, 1.94647208e-001,
          2.09245741e-001, 1.04622871e-001, 3.74695867e-001,
          2.96836972e-001, 2.21411183e-001, 1.07055962e-001,
          2.23844275e-001, 2.72506088e-001, 4.06326026e-001,
          2.79805362e-001, 2.65206814e-001, 4.86617982e-002,
          2.09245741e-001, 7.90754259e-001 ]
      - [ 3.28767113e-002, 1.06849313e-001, 1.06849313e-001,
          4.10958901e-002, 8.49315077e-002, 9.58904065e-003, 0.,
          8.76712352e-002, 8.76712352e-002, 1.09589044e-002,
          4.65753414e-002, 8.63013715e-002, 4.52054776e-002,
          4.38356176e-002, 1.28767118e-001, 8.08219165e-002,
          2.87671238e-001, 1.82191789e-001, 2.31506854e-001,
          2.98630118e-001, 2.50684917e-001, 1.71232879e-001,
          2.82191783e-001, 2.95890421e-001, 1.69863015e-001,
          9.72602740e-002, 2.34246567e-001, 2.35616446e-001,
          1.87671229e-001, 3.42465758e-001, 6.71232864e-002,
          9.32876706e-001 ]
      - [ 3.28767113e-002, 1.06849313e-001, 1.06849313e-001,
          4.10958901e-002, 8.49315077e-002, 9.58904065e-003, 0.,
          8.76712352e-002, 8.76712352e-002, 1.09589044e-002,
          4.65753414e-002, 8.63013715e-002, 4.52054776e-002,
          4.38356176e-002, 1.28767118e-001, 8.08219165e-002,
          2.87671238e-001, 1.82191789e-001, 2.31506854e-001,
          2.98630118e-001, 2.50684917e-001, 1.71232879e-001,
          2.82191783e-001, 2.95890421e-001, 1.69863015e-001,
          9.72602740e-002, 2.34246567e-001, 2.35616446e-001,
          1.87671229e-001, 3.42465758e-001, 6.71232864e-002,
          9.32876706e-001 ]
      - [ 1.06250003e-001, 1.10937499e-001, 1.10937499e-001,
          1.09375000e-001, 0., 6.25000000e-002, 0., 0., 0.,
          6.25000000e-002, 0., 0., 1.01562500e-001, 1.17187500e-001,
          1.10937499e-001, 1.07812501e-001, 4.37500000e-001,
          6.25000000e-002, 6.25000000e-002, 4.37500000e-001,
          2.07812503e-001, 3.53125006e-001, 2.21874997e-001,
          2.17187494e-001, 2.76562512e-001, 2.73437500e-001,
          2.79687494e-001, 2.20312506e-001, 2.81250000e-001,
          2.18750000e-001, 1.25000000e-001, 8.75000000e-001 ]
      - [ 1.08280256e-001, 1.11464970e-001, 1.11464970e-001,
          9.87261161e-002, 0., 6.36942685e-002, 0., 0., 0.,
          6.36942685e-002, 0., 0., 1.09872609e-001, 1.21019110e-001,
          1.11464970e-001, 1.00318469e-001, 4.29936320e-001,
          6.36942685e-002, 6.36942685e-002, 4.42675173e-001,
          2.18152866e-001, 3.59872609e-001, 2.22929940e-001,
          1.99044585e-001, 2.72293001e-001, 2.72293001e-001,
          2.83439487e-001, 2.10191086e-001, 2.94586003e-001,
          2.11783439e-001, 1.27388537e-001, 8.72611463e-001 ]
      - [ 9.26243588e-002, 1.02915950e-001, 1.02915950e-001,
          9.43396240e-002, 0., 7.20411688e-002, 0., 0., 0.,
          6.86106309e-002, 0., 0., 1.08061753e-001, 1.28644943e-001,
          1.21783875e-001, 1.08061753e-001, 3.92795891e-001,
          7.20411688e-002, 6.86106309e-002, 4.66552317e-001,
          2.00686112e-001, 3.72212708e-001, 2.24699825e-001,
          2.02401370e-001, 2.72727281e-001, 2.71012008e-001,
          2.67581463e-001, 1.97255582e-001, 3.05317342e-001,
          2.29845628e-001, 1.40651792e-001, 8.59348178e-001 ]
      - [ 9.77701545e-002, 1.28644943e-001, 1.20068610e-001,
          9.60548893e-002, 0., 6.86106309e-002, 0., 0., 0.,
          6.86106309e-002, 1.71526591e-003, 0., 1.08061753e-001,
          1.02915950e-001, 1.02915950e-001, 1.04631215e-001,
          4.42538589e-001, 6.86106309e-002, 7.03258961e-002,
          4.18524861e-001, 2.05831915e-001, 3.68782163e-001,
          2.24699825e-001, 2.00686097e-001, 2.72727281e-001,
          2.72727281e-001, 2.95025736e-001, 2.16123492e-001,
          2.79588342e-001, 2.09262431e-001, 1.38936535e-001,
          8.61063480e-001 ]
      - [ 9.77701545e-002, 1.28644943e-001, 1.20068610e-001,
          9.60548893e-002, 0., 6.86106309e-002, 0., 0., 0.,
          6.86106309e-002, 1.71526591e-003, 0., 1.08061753e-001,
          1.02915950e-001, 1.02915950e-001, 1.04631215e-001,
          4.42538589e-001, 6.86106309e-002, 7.03258961e-002,
          4.18524861e-001, 2.05831915e-001, 3.68782163e-001,
          2.24699825e-001, 2.00686097e-001, 2.72727281e-001,
          2.72727281e-001, 2.95025736e-001, 2.16123492e-001,
          2.79588342e-001, 2.09262431e-001, 1.38936535e-001,
          8.61063480e-001 ]
      - [ 9.26243588e-002, 1.02915950e-001, 1.02915950e-001,
          9.43396240e-002, 0., 7.20411688e-002, 0., 0., 0.,
          6.86106309e-002, 0., 0., 1.08061753e-001, 1.28644943e-001,
          1.21783875e-001, 1.08061753e-001, 3.92795891e-001,
          7.20411688e-002, 6.86106309e-002, 4.66552317e-001,
          2.00686112e-001, 3.72212708e-001, 2.24699825e-001,
          2.02401370e-001, 2.72727281e-001, 2.71012008e-001,
          2.67581463e-001, 1.97255582e-001, 3.05317342e-001,
          2.29845628e-001, 1.40651792e-001, 8.59348178e-001 ]
      - [ 1.08280256e-001, 1.11464970e-001, 1.11464970e-001,
          9.87261161e-002, 0., 6.36942685e-002, 0., 0., 0.,
          6.36942685e-002, 0., 0., 1.09872609e-001, 1.21019110e-001,
          1.11464970e-001, 1.00318469e-001, 4.29936320e-001,
          6.36942685e-002, 6.36942685e-002, 4.42675173e-001,
          2.18152866e-001, 3.59872609e-001, 2.22929940e-001,
          1.99044585e-001, 2.72293001e-001, 2.72293001e-001,
          2.83439487e-001, 2.10191086e-001, 2.94586003e-001,
          2.11783439e-001, 1.27388537e-001, 8.72611463e-001 ]
      - [ 1.10236220e-001, 1.37795269e-001, 8.46456662e-002,
          6.29921257e-002, 1.96850393e-003, 1.41732290e-001,
          1.49606302e-001, 3.34645659e-002, 9.44881886e-002,
          3.14960629e-002, 1.96850393e-002, 6.88976347e-002,
          2.75590550e-002, 0., 0., 3.54330726e-002, 3.95669281e-001,
          3.26771677e-001, 2.14566931e-001, 6.29921257e-002,
          2.34251961e-001, 3.11023623e-001, 2.53937006e-001,
          2.00787395e-001, 3.07086617e-001, 2.71653533e-001,
          3.91732275e-001, 3.30708653e-001, 1.53543308e-001,
          1.24015749e-001, 3.42519701e-001, 6.57480299e-001 ]
      - [ 1.09256446e-001, 1.21396057e-001, 1.21396057e-001,
          1.09256446e-001, 1.06221549e-002, 1.10773899e-001,
          1.07739002e-001, 7.58725358e-003, 9.55993906e-002,
          1.97268594e-002, 1.82094090e-002, 8.95295888e-002,
          3.94537188e-002, 0., 0., 3.94537188e-002, 4.61305022e-001,
          2.36722305e-001, 2.23065242e-001, 7.89074376e-002,
          2.54931718e-001, 2.51896828e-001, 2.47344464e-001,
          2.45827004e-001, 2.77693480e-001, 2.76176035e-001,
          3.52048546e-001, 3.45978767e-001, 1.54779971e-001,
          1.47192717e-001, 2.56449163e-001, 7.43550837e-001 ]
      - [ 1.11801244e-001, 1.21118009e-001, 1.10248446e-001,
          1.00931674e-001, 1.08695654e-002, 1.10248446e-001,
          1.08695649e-001, 1.70807447e-002, 9.78260860e-002,
          2.01863348e-002, 1.86335407e-002, 9.00621116e-002,
          3.72670814e-002, 0., 0., 4.50310558e-002, 4.44099367e-001,
          2.46894404e-001, 2.26708069e-001, 8.22981372e-002,
          2.57763982e-001, 2.51552790e-001, 2.37577632e-001,
          2.53105581e-001, 2.85714298e-001, 2.67080724e-001,
          3.54037255e-001, 3.36956501e-001, 1.55279502e-001,
          1.53726712e-001, 2.57763982e-001, 7.42236018e-001 ]
      - [ 1.11801244e-001, 1.21118009e-001, 1.10248446e-001,
          1.00931674e-001, 1.08695654e-002, 1.10248446e-001,
          1.08695649e-001, 1.70807447e-002, 9.78260860e-002,
          2.01863348e-002, 1.86335407e-002, 9.00621116e-002,
          3.72670814e-002, 0., 0., 4.50310558e-002, 4.44099367e-001,
          2.46894404e-001, 2.26708069e-001, 8.22981372e-002,
          2.57763982e-001, 2.51552790e-001, 2.37577632e-001,
          2.53105581e-001, 2.85714298e-001, 2.67080724e-001,
          3.54037255e-001, 3.36956501e-001, 1.55279502e-001,
          1.53726712e-001, 2.57763982e-001, 7.42236018e-001 ]
      - [ 1.09256446e-001, 1.21396057e-001, 1.21396057e-001,
          1.09256446e-001, 1.06221549e-002, 1.10773899e-001,
          1.07739002e-001, 7.58725358e-003, 9.55993906e-002,
          1.97268594e-002, 1.82094090e-002, 8.95295888e-002,
          3.94537188e-002, 0., 0., 3.94537188e-002, 4.61305022e-001,
          2.36722305e-001, 2.23065242e-001, 7.89074376e-002,
          2.54931718e-001, 2.51896828e-001, 2.47344464e-001,
          2.45827004e-001, 2.77693480e-001, 2.76176035e-001,
          3.52048546e-001, 3.45978767e-001, 1.54779971e-001,
          1.47192717e-001, 2.56449163e-001, 7.43550837e-001 ]
      - [ 1.79211468e-001, 1.79211468e-001, 1.79211468e-001,
          1.61290318e-001, 0., 0., 0., 1.07526883e-001, 0., 0., 0.,
          1.07526883e-001, 0., 0., 0., 8.60215053e-002, 6.98924720e-001,
          1.07526883e-001, 1.07526883e-001, 8.60215053e-002,
          1.79211468e-001, 1.79211468e-001, 1.79211468e-001,
          4.62365597e-001, 2.65232980e-001, 1.61290318e-001,
          3.58422935e-001, 4.48028684e-001, 0., 1.93548381e-001, 0., 1. ]
      - [ 1.79211468e-001, 1.79211468e-001, 1.79211468e-001,
          1.61290318e-001, 0., 0., 0., 1.07526883e-001, 0., 0., 0.,
          1.07526883e-001, 0., 0., 0., 8.60215053e-002, 6.98924720e-001,
          1.07526883e-001, 1.07526883e-001, 8.60215053e-002,
          1.79211468e-001, 1.79211468e-001, 1.79211468e-001,
          4.62365597e-001, 2.65232980e-001, 1.61290318e-001,
          3.58422935e-001, 4.48028684e-001, 0., 1.93548381e-001, 0., 1. ]
      - [ 8.86699483e-002, 9.85221639e-002, 9.97536927e-002,
          9.85221639e-002, 5.04926108e-002, 5.91133013e-002, 0., 0.,
          4.43349741e-002, 6.65024593e-002, 0., 0., 9.97536927e-002,
          1.00985222e-001, 9.97536927e-002, 9.35960561e-002,
          3.85467976e-001, 1.09605908e-001, 1.10837430e-001,
          3.94088656e-001, 2.83251226e-001, 3.25123131e-001,
          1.99507385e-001, 1.92118227e-001, 2.41379306e-001,
          2.64778316e-001, 2.96798021e-001, 1.98275864e-001,
          3.11576337e-001, 1.93349749e-001, 1.25615761e-001,
          8.74384224e-001 ]
      - [ 9.91501436e-002, 9.49008465e-002, 9.91501436e-002,
          7.93201104e-002, 5.38243614e-002, 6.94051012e-002, 0., 0.,
          5.09915017e-002, 6.94051012e-002, 0., 2.83286115e-003,
          9.77337137e-002, 1.01983003e-001, 9.91501436e-002,
          8.21529776e-002, 3.72521251e-001, 1.23229459e-001,
          1.23229466e-001, 3.81019831e-001, 3.01699728e-001,
          3.35694045e-001, 1.98300287e-001, 1.64305955e-001,
          2.50708222e-001, 2.46458918e-001, 3.17280442e-001,
          1.78470254e-001, 3.20113331e-001, 1.84135988e-001,
          1.38810202e-001, 8.61189783e-001 ]
      - [ 7.11743757e-002, 8.89679715e-002, 8.89679715e-002,
          7.11743757e-002, 6.22775815e-002, 8.89679715e-002, 0., 0.,
          5.87188601e-002, 8.89679715e-002, 0., 0., 9.96441245e-002,
          1.20996438e-001, 8.89679715e-002, 7.11743757e-002,
          3.20284694e-001, 1.51245549e-001, 1.47686839e-001,
          3.80782902e-001, 2.91814953e-001, 3.87900352e-001,
          1.77935943e-001, 1.42348751e-001, 2.31316715e-001,
          2.59786487e-001, 3.11387897e-001, 1.60142347e-001,
          3.68327379e-001, 1.60142347e-001, 1.77935943e-001,
          8.22064042e-001 ]
      - [ 9.97229889e-002, 9.97229889e-002, 9.69529077e-002,
          8.72576162e-002, 5.40166199e-002, 7.06371218e-002, 0., 0.,
          5.67867048e-002, 6.92520812e-002, 0., 0., 9.83379483e-002,
          8.86426568e-002, 9.27977860e-002, 8.58725756e-002,
          3.83656502e-001, 1.24653742e-001, 1.26038790e-001,
          3.65650952e-001, 3.08864266e-001, 3.28254849e-001,
          1.89750701e-001, 1.73130184e-001, 2.56232679e-001,
          2.54847646e-001, 3.24099720e-001, 1.84210524e-001,
          3.13019395e-001, 1.78670362e-001, 1.39889210e-001,
          8.60110819e-001 ]
      - [ 9.54907164e-002, 1.06100798e-001, 1.03448279e-001,
          9.41644534e-002, 5.03978767e-002, 5.96816987e-002, 0., 0.,
          3.97877991e-002, 6.36604801e-002, 0., 0., 9.54907164e-002,
          9.54907164e-002, 1.03448279e-001, 9.28381979e-002,
          3.99204254e-001, 1.10079572e-001, 1.03448279e-001,
          3.87267917e-001, 2.81167120e-001, 3.24933708e-001,
          2.06896558e-001, 1.87002659e-001, 2.48010606e-001,
          2.53315657e-001, 3.11671078e-001, 1.97612733e-001,
          2.94429719e-001, 1.96286470e-001, 1.23342179e-001,
          8.76657844e-001 ]
      - [ 7.11743757e-002, 8.89679715e-002, 8.89679715e-002,
          7.11743757e-002, 6.22775815e-002, 8.89679715e-002, 0., 0.,
          5.87188601e-002, 8.89679715e-002, 0., 0., 9.96441245e-002,
          1.20996438e-001, 8.89679715e-002, 7.11743757e-002,
          3.20284694e-001, 1.51245549e-001, 1.47686839e-001,
          3.80782902e-001, 2.91814953e-001, 3.87900352e-001,
          1.77935943e-001, 1.42348751e-001, 2.31316715e-001,
          2.59786487e-001, 3.11387897e-001, 1.60142347e-001,
          3.68327379e-001, 1.60142347e-001, 1.77935943e-001,
          8.22064042e-001 ]
      - [ 9.77080837e-002, 1.02533169e-001, 9.65018123e-002,
          8.92641768e-002, 3.49819064e-002, 8.44390839e-002,
          1.56815443e-002, 0., 0., 9.65018105e-003, 8.56453553e-002,
          4.22195420e-002, 5.66948131e-002, 9.65018123e-002,
          9.40892622e-002, 9.40892622e-002, 3.86007249e-001,
          1.35102540e-001, 1.37515083e-001, 3.41375142e-001,
          1.89384803e-001, 2.93124259e-001, 2.91917980e-001,
          2.25572973e-001, 3.61881793e-001, 1.71290711e-001,
          3.19662243e-001, 2.01447532e-001, 1.62846804e-001,
          3.16043437e-001, 1.95416167e-001, 8.04583848e-001 ]
      - [ 9.60000008e-002, 9.86666679e-002, 8.79999995e-002,
          8.39999989e-002, 4.39999998e-002, 7.46666640e-002,
          9.33333300e-003, 0., 0., 9.33333300e-003, 8.26666653e-002,
          3.99999991e-002, 8.39999989e-002, 9.33333337e-002,
          1.00000001e-001, 9.60000008e-002, 3.66666675e-001,
          1.27999991e-001, 1.31999999e-001, 3.73333335e-001,
          2.24000007e-001, 2.75999993e-001, 2.80000001e-001,
          2.19999999e-001, 3.49333346e-001, 1.86666667e-001,
          3.13333333e-001, 1.81333333e-001, 1.86666667e-001,
          3.18666667e-001, 1.75999999e-001, 8.24000001e-001 ]
      - [ 9.47368443e-002, 9.94152054e-002, 9.35672522e-002,
          8.65497068e-002, 3.39181274e-002, 8.18713456e-002,
          1.52046783e-002, 0., 0., 9.35672503e-003, 8.30409378e-002,
          4.09356728e-002, 8.53801146e-002, 9.35672522e-002,
          9.12280679e-002, 9.12280679e-002, 3.74269009e-001,
          1.30994156e-001, 1.33333340e-001, 3.61403495e-001,
          2.14035094e-001, 2.84210533e-001, 2.83040941e-001,
          2.18713447e-001, 3.50877196e-001, 1.96491227e-001,
          3.09941530e-001, 1.95321634e-001, 1.88304096e-001,
          3.06432754e-001, 1.89473689e-001, 8.10526311e-001 ]
      - [ 7.89074376e-002, 8.34597871e-002, 7.58725330e-002,
          6.98027313e-002, 4.70409729e-002, 9.55993906e-002,
          1.36570558e-002, 9.10470448e-003, 1.21396054e-002,
          1.82094090e-002, 1.00151747e-001, 4.55235206e-002,
          9.40819457e-002, 8.04248825e-002, 8.80121365e-002,
          8.80121365e-002, 3.08042496e-001, 1.65402129e-001,
          1.76024288e-001, 3.50531101e-001, 2.32169956e-001,
          2.77693480e-001, 2.77693480e-001, 2.12443098e-001,
          3.62670720e-001, 1.95751145e-001, 3.05007577e-001,
          1.68437019e-001, 2.04855844e-001, 3.21699530e-001,
          2.27617607e-001, 7.72382379e-001 ]
      - [ 8.01232681e-002, 8.47457647e-002, 7.70416036e-002,
          7.08782747e-002, 4.77657951e-002, 9.70724225e-002,
          1.38674881e-002, 9.24499240e-003, 1.23266568e-002,
          1.84899848e-002, 1.01694912e-001, 4.62249629e-002,
          9.55315903e-002, 8.16641003e-002, 8.93682614e-002,
          7.39599392e-002, 3.12788904e-001, 1.67950705e-001,
          1.78736523e-001, 3.40523899e-001, 2.35747308e-001,
          2.81972259e-001, 2.81972259e-001, 2.00308174e-001,
          3.52850556e-001, 1.98767334e-001, 3.09707254e-001,
          1.71032354e-001, 2.08012328e-001, 3.11248064e-001,
          2.31124803e-001, 7.68875182e-001 ]
      - [ 1.00175746e-001, 1.23022847e-001, 1.37082607e-001,
          1.24780320e-001, 6.85413033e-002, 4.92091402e-002,
          5.27240783e-002, 1.23022851e-002, 8.78734589e-002,
          5.09666093e-002, 3.51493843e-002, 0., 5.62390164e-002,
          1.00175746e-001, 1.75746926e-003, 0., 4.85061526e-001,
          1.82776809e-001, 1.73989445e-001, 1.58172235e-001,
          3.12829524e-001, 3.23374331e-001, 2.26713538e-001,
          1.37082607e-001, 1.84534267e-001, 2.84710020e-001,
          3.40949029e-001, 3.26889277e-001, 2.95254827e-001,
          3.69068533e-002, 1.88049212e-001, 8.11950803e-001 ]
      - [ 1.04587153e-001, 1.28440365e-001, 1.28440365e-001,
          1.00917429e-001, 8.07339475e-002, 3.85321118e-002,
          4.77064215e-002, 1.28440363e-002, 8.62385333e-002,
          5.13761453e-002, 2.93577984e-002, 0., 6.23853207e-002,
          1.26605511e-001, 1.83486240e-003, 0., 4.62385297e-001,
          1.79816514e-001, 1.66972473e-001, 1.90825701e-001,
          3.33944947e-001, 3.44954133e-001, 2.07339451e-001,
          1.13761462e-001, 1.72477067e-001, 2.62385309e-001,
          3.52293581e-001, 2.89908260e-001, 3.26605499e-001,
          3.11926603e-002, 1.66972473e-001, 8.33027542e-001 ]
      - [ 9.43025574e-002, 1.17878191e-001, 1.17878191e-001,
          1.29666016e-001, 9.23379138e-002, 3.92927304e-002,
          5.69744594e-002, 1.37524558e-002, 9.62671936e-002,
          5.10805510e-002, 2.75049116e-002, 0., 5.50098233e-002,
          1.08055010e-001, 0., 0., 4.59724963e-001, 2.02357560e-001,
          1.74852654e-001, 1.63064837e-001, 3.37917477e-001,
          3.16306472e-001, 2.02357560e-001, 1.43418476e-001,
          1.61100194e-001, 2.92730838e-001, 3.43811393e-001,
          3.18271130e-001, 3.10412586e-001, 2.75049116e-002,
          1.74852654e-001, 8.25147331e-001 ]
      - [ 1.00175746e-001, 1.23022847e-001, 1.37082607e-001,
          1.24780320e-001, 6.85413033e-002, 4.92091402e-002,
          5.27240783e-002, 1.23022851e-002, 8.78734589e-002,
          5.09666093e-002, 3.51493843e-002, 0., 5.62390164e-002,
          1.00175746e-001, 1.75746926e-003, 0., 4.85061526e-001,
          1.82776809e-001, 1.73989445e-001, 1.58172235e-001,
          3.12829524e-001, 3.23374331e-001, 2.26713538e-001,
          1.37082607e-001, 1.84534267e-001, 2.84710020e-001,
          3.40949029e-001, 3.26889277e-001, 2.95254827e-001,
          3.69068533e-002, 1.88049212e-001, 8.11950803e-001 ]
      - [ 9.90566015e-002, 1.41509429e-001, 1.41509429e-001,
          1.29716977e-001, 7.31132105e-002, 2.59433966e-002,
          4.71698120e-002, 0., 7.78301880e-002, 5.42452820e-002,
          3.30188684e-002, 0., 5.42452820e-002, 1.22641511e-001, 0., 0.,
          5.11792421e-001, 1.46226421e-001, 1.65094346e-001,
          1.76886797e-001, 3.04245293e-001, 3.44339609e-001,
          2.21698105e-001, 1.29716977e-001, 1.58018872e-001,
          2.85377353e-001, 3.39622647e-001, 3.18396211e-001,
          3.08962256e-001, 3.30188684e-002, 1.60377353e-001,
          8.39622617e-001 ]
      - [ 1.04779415e-001, 1.28676474e-001, 1.28676474e-001,
          1.15808822e-001, 8.27205852e-002, 3.67647074e-002,
          4.77941185e-002, 1.28676472e-002, 9.00735259e-002,
          4.77941185e-002, 2.75735296e-002, 0., 6.06617630e-002,
          1.13970585e-001, 1.83823530e-003, 0., 4.77941185e-001,
          1.80147052e-001, 1.65441170e-001, 1.76470578e-001,
          3.38235289e-001, 3.27205896e-001, 2.05882356e-001,
          1.28676474e-001, 1.69117659e-001, 2.72058815e-001,
          3.52941185e-001, 3.05147052e-001, 3.12500000e-001,
          2.94117648e-002, 1.59926474e-001, 8.40073526e-001 ]
      - [ 9.61923823e-002, 1.20240480e-001, 1.16232462e-001,
          1.32264525e-001, 9.01803598e-002, 4.00801599e-002,
          5.21042086e-002, 1.40280565e-002, 9.41883773e-002,
          5.21042086e-002, 2.80561130e-002, 0., 5.41082174e-002,
          1.10220440e-001, 0., 0., 4.64929849e-001, 1.96392789e-001,
          1.74348697e-001, 1.64328665e-001, 3.34669352e-001,
          3.22645277e-001, 1.96392789e-001, 1.46292582e-001,
          1.64328650e-001, 2.90581167e-001, 3.46693397e-001,
          3.14629257e-001, 3.10621232e-001, 2.80561130e-002,
          1.72344685e-001, 8.27655315e-001 ]
      - [ 9.28433239e-002, 1.16054155e-001, 1.16054155e-001,
          1.16054155e-001, 8.89748558e-002, 3.86847183e-002,
          5.22243716e-002, 2.32108310e-002, 9.28433239e-002,
          4.83558998e-002, 3.09477765e-002, 0., 5.99613152e-002,
          1.21856868e-001, 1.93423603e-003, 0., 4.41005796e-001,
          2.03094780e-001, 1.72147006e-001, 1.83752418e-001,
          3.34622830e-001, 3.24951649e-001, 2.01160535e-001,
          1.39264986e-001, 1.62475824e-001, 2.76595742e-001,
          3.36557060e-001, 3.07543516e-001, 3.23017418e-001,
          3.28820124e-002, 1.70212761e-001, 8.29787195e-001 ]
      - [ 7.77626187e-002, 7.91268796e-002, 4.50204648e-002,
          7.09413365e-002, 7.36698508e-002, 7.63983652e-002,
          9.54979565e-003, 7.36698508e-002, 7.63983652e-002,
          4.50204648e-002, 3.95634398e-002, 7.09413365e-002,
          6.54843077e-002, 2.72851288e-002, 1.10504776e-001,
          5.86630292e-002, 2.72851288e-001, 2.33287856e-001,
          2.31923610e-001, 2.61937231e-001, 2.93315142e-001,
          2.27830842e-001, 2.04638481e-001, 2.74215549e-001,
          2.52387464e-001, 1.90995902e-001, 3.06957722e-001,
          1.99181452e-001, 2.14188263e-001, 2.79672593e-001,
          1.70532063e-001, 8.29467952e-001 ]
      - [ 7.77626187e-002, 7.91268796e-002, 4.50204648e-002,
          7.09413365e-002, 7.36698508e-002, 7.63983652e-002,
          9.54979565e-003, 7.36698508e-002, 7.63983652e-002,
          4.50204648e-002, 3.95634398e-002, 7.09413365e-002,
          6.54843077e-002, 2.72851288e-002, 1.10504776e-001,
          5.86630292e-002, 2.72851288e-001, 2.33287856e-001,
          2.31923610e-001, 2.61937231e-001, 2.93315142e-001,
          2.27830842e-001, 2.04638481e-001, 2.74215549e-001,
          2.52387464e-001, 1.90995902e-001, 3.06957722e-001,
          1.99181452e-001, 2.14188263e-001, 2.79672593e-001,
          1.70532063e-001, 8.29467952e-001 ]
      - [ 7.77626187e-002, 7.91268796e-002, 4.50204648e-002,
          7.09413365e-002, 7.36698508e-002, 7.63983652e-002,
          9.54979565e-003, 7.36698508e-002, 7.63983652e-002,
          4.50204648e-002, 3.95634398e-002, 7.09413365e-002,
          6.54843077e-002, 2.72851288e-002, 1.10504776e-001,
          5.86630292e-002, 2.72851288e-001, 2.33287856e-001,
          2.31923610e-001, 2.61937231e-001, 2.93315142e-001,
          2.27830842e-001, 2.04638481e-001, 2.74215549e-001,
          2.52387464e-001, 1.90995902e-001, 3.06957722e-001,
          1.99181452e-001, 2.14188263e-001, 2.79672593e-001,
          1.70532063e-001, 8.29467952e-001 ]
      - [ 8.73362422e-002, 0., 0., 0., 1.46288216e-001, 8.73362422e-002,
          1.06986903e-001, 9.60698724e-002, 1.44104809e-001,
          8.73362422e-002, 8.73362422e-002, 6.98689967e-002,
          8.73362422e-002, 0., 0., 0., 8.73362422e-002, 4.36681241e-001,
          3.88646305e-001, 8.73362422e-002, 4.65065509e-001,
          1.74672484e-001, 1.94323152e-001, 1.65938869e-001,
          2.62008727e-001, 2.81659395e-001, 3.20960701e-001,
          2.03056782e-001, 3.18777293e-001, 1.57205239e-001,
          3.68995637e-001, 6.31004393e-001 ]
      - [ 9.06976759e-002, 0., 0., 0., 1.39534891e-001, 1.09302327e-001,
          1.16279073e-001, 1.02325581e-001, 1.41860470e-001,
          6.97674453e-002, 6.97674453e-002, 6.27906993e-002,
          9.76744220e-002, 0., 0., 0., 9.06976759e-002, 4.67441857e-001,
          3.44186068e-001, 9.76744220e-002, 4.69767451e-001,
          1.79069772e-001, 1.86046511e-001, 1.65116280e-001,
          2.69767463e-001, 2.83720940e-001, 3.39534879e-001,
          2.18604654e-001, 3.09302330e-001, 1.32558137e-001,
          3.65116298e-001, 6.34883761e-001 ]
      - [ 8.37696344e-002, 0., 0., 0., 1.62303671e-001, 8.37696344e-002,
          7.85340294e-002, 7.06806257e-002, 1.41361251e-001,
          7.85340294e-002, 8.90052393e-002, 1.17801048e-001,
          9.42408368e-002, 0., 0., 0., 8.37696344e-002, 3.95287961e-001,
          4.26701576e-001, 9.42408368e-002, 4.81675386e-001,
          1.62303656e-001, 1.67539269e-001, 1.88481674e-001,
          2.56544501e-001, 2.51308888e-001, 3.29842925e-001,
          1.49214655e-001, 3.14136118e-001, 2.06806287e-001,
          3.29842925e-001, 6.70157075e-001 ]
      - [ 9.22746807e-002, 0., 0., 0., 1.45922750e-001, 1.07296139e-001,
          1.22317597e-001, 1.15879826e-001, 1.37339056e-001,
          6.43776804e-002, 6.43776804e-002, 5.79399131e-002,
          9.22746807e-002, 0., 0., 0., 9.22746807e-002, 4.91416305e-001,
          3.24034333e-001, 9.22746807e-002, 4.67811167e-001,
          1.71673819e-001, 1.86695278e-001, 1.73819736e-001,
          2.63948500e-001, 2.78969944e-001, 3.45493555e-001,
          2.38197416e-001, 2.93991417e-001, 1.22317597e-001,
          3.58369112e-001, 6.41630888e-001 ]
      - [ 9.44206044e-002, 0., 0., 0., 1.43776819e-001, 8.58369097e-002,
          8.58369097e-002, 7.72532225e-002, 1.43776819e-001,
          8.58369097e-002, 9.01287571e-002, 9.65665206e-002,
          9.65665206e-002, 0., 0., 0., 9.44206044e-002, 3.92703861e-001,
          4.16308999e-001, 9.65665206e-002, 4.78540778e-001,
          1.71673819e-001, 1.75965667e-001, 1.73819751e-001,
          2.70386279e-001, 2.68240333e-001, 3.24034333e-001,
          1.63090140e-001, 3.26180249e-001, 1.86695278e-001,
          3.47639501e-001, 6.52360499e-001 ]
      - [ 9.06976759e-002, 0., 0., 0., 1.39534891e-001, 1.09302327e-001,
          1.16279073e-001, 1.02325581e-001, 1.41860470e-001,
          6.97674453e-002, 6.97674453e-002, 6.27906993e-002,
          9.76744220e-002, 0., 0., 0., 9.06976759e-002, 4.67441857e-001,
          3.44186068e-001, 9.76744220e-002, 4.69767451e-001,
          1.79069772e-001, 1.86046511e-001, 1.65116280e-001,
          2.69767463e-001, 2.83720940e-001, 3.39534879e-001,
          2.18604654e-001, 3.09302330e-001, 1.32558137e-001,
          3.65116298e-001, 6.34883761e-001 ]
      - [ 1.04553118e-001, 1.28161892e-001, 1.23102866e-001,
          5.39629012e-002, 0., 0., 0., 8.26306939e-002, 1.34907253e-002,
          0., 0., 8.43170285e-002, 1.04553118e-001, 1.18043847e-001,
          1.33220911e-001, 5.39629012e-002, 4.09780771e-001,
          8.26306939e-002, 9.78077501e-002, 4.09780771e-001,
          2.22596958e-001, 2.46205747e-001, 2.56323785e-001,
          2.74873525e-001, 1.58516020e-001, 1.58516020e-001,
          2.32715011e-001, 2.59696454e-001, 2.36087695e-001,
          2.71500826e-001, 0., 1. ]
      - [ 1.13798007e-001, 1.28022760e-001, 1.16642959e-001,
          5.54765277e-002, 0., 0., 0., 7.82361329e-002, 5.68990037e-003,
          0., 0., 7.11237565e-002, 1.15220487e-001, 1.28022760e-001,
          1.25177816e-001, 6.25889078e-002, 4.13940251e-001,
          7.82361329e-002, 7.68136531e-002, 4.31009978e-001,
          2.34708399e-001, 2.56045520e-001, 2.41820782e-001,
          2.67425328e-001, 1.76386923e-001, 1.70697019e-001,
          2.41820768e-001, 2.50355631e-001, 2.48933151e-001,
          2.58890480e-001, 0., 1. ]
      - [ 1.10139862e-001, 1.22377619e-001, 1.24125876e-001,
          5.94405606e-002, 0., 0., 0., 8.21678340e-002, 0., 0., 0.,
          7.51748234e-002, 1.17132865e-001, 1.22377619e-001,
          1.22377619e-001, 6.46853149e-002, 4.16083932e-001,
          8.21678340e-002, 7.51748234e-002, 4.26573426e-001,
          2.27272719e-001, 2.44755238e-001, 2.46503502e-001,
          2.81468540e-001, 1.74825177e-001, 1.76573426e-001,
          2.32517481e-001, 2.65734255e-001, 2.39510477e-001,
          2.62237757e-001, 0., 1. ]
      - [ 1.08695649e-001, 1.22282609e-001, 1.11413047e-001,
          5.29891290e-002, 0., 0., 0., 7.47282580e-002, 3.12500000e-002,
          4.07608692e-003, 1.08695654e-002, 6.92934766e-002,
          1.10054351e-001, 1.22282609e-001, 1.22282609e-001,
          5.97826093e-002, 3.95380437e-001, 7.47282580e-002,
          1.15489125e-001, 4.14402187e-001, 2.50000000e-001,
          2.48641312e-001, 2.44565219e-001, 2.56793469e-001,
          1.79347828e-001, 1.67119563e-001, 2.30978251e-001,
          2.39130437e-001, 2.67663062e-001, 2.62228251e-001,
          1.49456523e-002, 9.85054374e-001 ]
      - [ 1.04553118e-001, 1.28161892e-001, 1.23102866e-001,
          5.39629012e-002, 0., 0., 0., 8.26306939e-002, 1.34907253e-002,
          0., 0., 8.43170285e-002, 1.04553118e-001, 1.18043847e-001,
          1.33220911e-001, 5.39629012e-002, 4.09780771e-001,
          8.26306939e-002, 9.78077501e-002, 4.09780771e-001,
          2.22596958e-001, 2.46205747e-001, 2.56323785e-001,
          2.74873525e-001, 1.58516020e-001, 1.58516020e-001,
          2.32715011e-001, 2.59696454e-001, 2.36087695e-001,
          2.71500826e-001, 0., 1. ]
      - [ 1.01851851e-001, 5.74074090e-002, 0., 0., 1.11111114e-002,
          7.22222254e-002, 1.22222222e-001, 8.51851851e-002,
          1.48148146e-002, 6.11111112e-002, 1.11111112e-001,
          1.50000006e-001, 1.12962961e-001, 7.22222254e-002,
          2.77777780e-002, 0., 1.59259260e-001, 2.90740758e-001,
          3.37037057e-001, 2.12962970e-001, 2.40740731e-001,
          2.62962967e-001, 2.61111110e-001, 2.35185191e-001,
          2.85185188e-001, 2.96296299e-001, 2.42592603e-001,
          2.07407415e-001, 2.61111110e-001, 2.88888901e-001,
          3.66666675e-001, 6.33333325e-001 ]
      - [ 1.04693137e-001, 7.76173249e-002, 2.52707582e-002, 0.,
          1.44404331e-002, 6.85920566e-002, 1.04693137e-001,
          1.35379061e-001, 2.16606501e-002, 9.92779806e-002,
          1.17328517e-001, 8.84476528e-002, 9.56678689e-002,
          4.33213003e-002, 3.61010828e-003, 0., 2.07581222e-001,
          3.23104680e-001, 3.26714814e-001, 1.42599285e-001,
          2.36462086e-001, 2.88808674e-001, 2.50902534e-001,
          2.23826706e-001, 2.90613711e-001, 2.99638987e-001,
          2.65342951e-001, 2.65342951e-001, 2.59927809e-001,
          2.09386274e-001, 3.89891684e-001, 6.10108316e-001 ]
      - [ 1.16239317e-001, 7.00854734e-002, 2.05128212e-002, 0.,
          8.54700897e-003, 5.81196584e-002, 1.07692309e-001,
          1.23076923e-001, 1.19658122e-002, 7.35042766e-002,
          1.16239317e-001, 1.12820514e-001, 1.09401710e-001,
          5.81196584e-002, 1.36752138e-002, 0., 2.06837609e-001,
          2.97435910e-001, 3.14529926e-001, 1.81196585e-001,
          2.46153846e-001, 2.59829074e-001, 2.58119673e-001,
          2.35897437e-001, 2.90598303e-001, 2.90598303e-001,
          2.52991468e-001, 2.51282066e-001, 2.52991468e-001,
          2.42735043e-001, 3.55555564e-001, 6.44444466e-001 ]
      - [ 9.96240601e-002, 5.63909784e-002, 3.75939859e-003, 0.,
          2.63157897e-002, 7.70676658e-002, 1.35338351e-001,
          1.07142858e-001, 7.51879718e-003, 7.33082741e-002,
          1.33458644e-001, 1.10902257e-001, 1.03383459e-001,
          6.20300770e-002, 3.75939859e-003, 0., 1.59774438e-001,
          3.45864654e-001, 3.25187981e-001, 1.69172928e-001,
          2.36842111e-001, 2.68796980e-001, 2.76315778e-001,
          2.18045115e-001, 3.10150385e-001, 3.12030077e-001,
          2.59398490e-001, 2.46240601e-001, 2.46240601e-001,
          2.48120293e-001, 4.19172943e-001, 5.80827057e-001 ]
      - [ 1.01960786e-001, 6.27451017e-002, 1.56862754e-002, 0.,
          1.76470596e-002, 6.66666701e-002, 1.25490203e-001,
          1.41176477e-001, 1.76470596e-002, 8.82352963e-002,
          1.33333340e-001, 8.23529437e-002, 9.80392173e-002,
          4.90196086e-002, 0., 0., 1.80392161e-001, 3.50980401e-001,
          3.21568638e-001, 1.47058830e-001, 2.35294119e-001,
          2.66666681e-001, 2.74509817e-001, 2.23529428e-001,
          3.01960796e-001, 3.11764717e-001, 2.49019623e-001,
          2.82352954e-001, 2.52941191e-001, 2.15686291e-001,
          4.13725495e-001, 5.86274505e-001 ]
      - [ 1.05947956e-001, 7.24907070e-002, 1.67286247e-002, 0.,
          1.67286247e-002, 6.50557652e-002, 1.17100373e-001,
          1.44981414e-001, 5.57620823e-003, 7.43494406e-002,
          1.31970257e-001, 9.10780653e-002, 9.66542736e-002,
          5.94795533e-002, 1.85873604e-003, 0., 1.95167288e-001,
          3.43866169e-001, 3.02973986e-001, 1.57992557e-001,
          2.24907070e-001, 2.71375477e-001, 2.67657995e-001,
          2.36059487e-001, 3.02973986e-001, 2.88104087e-001,
          2.60223061e-001, 2.78810412e-001, 2.36059472e-001,
          2.24907055e-001, 3.88475835e-001, 6.11524165e-001 ]
      - [ 9.00383145e-002, 3.83141753e-003, 1.91570877e-003,
          7.47126415e-002, 4.21455950e-002, 1.18773945e-001,
          1.24521069e-001, 5.55555560e-002, 6.89655170e-002,
          1.09195404e-001, 1.18773945e-001, 4.59770113e-002,
          5.17241396e-002, 0., 1.91570877e-003, 9.19540226e-002,
          1.70498088e-001, 3.40996176e-001, 3.42911869e-001,
          1.45593867e-001, 2.52873570e-001, 2.31800765e-001,
          2.47126430e-001, 2.68199235e-001, 4.19540226e-001,
          3.60153258e-001, 2.54789263e-001, 2.56704986e-001,
          2.29885057e-001, 2.58620679e-001, 4.71264362e-001,
          5.28735638e-001 ]
      - [ 7.94223845e-002, 0., 7.22021656e-003, 8.30324888e-002,
          3.97111923e-002, 1.31768957e-001, 1.37184113e-001,
          3.24909762e-002, 6.31768927e-002, 1.13718413e-001,
          1.04693137e-001, 7.58122727e-002, 8.12274367e-002, 0., 0.,
          5.05415164e-002, 1.69675097e-001, 3.41155231e-001,
          3.57400715e-001, 1.31768957e-001, 2.63537914e-001,
          2.45487362e-001, 2.49097466e-001, 2.41877258e-001,
          3.66425991e-001, 4.15162444e-001, 2.50902534e-001,
          2.59927809e-001, 2.58122742e-001, 2.31046930e-001,
          4.87364620e-001, 5.12635350e-001 ]
      - [ 6.82819411e-002, 4.40528616e-003, 2.20264308e-003,
          6.16740100e-002, 3.52422893e-002, 1.36563882e-001,
          1.45374447e-001, 5.28634377e-002, 6.60792962e-002,
          1.32158592e-001, 1.36563882e-001, 4.40528616e-002,
          4.18502204e-002, 0., 2.20264308e-003, 7.04845786e-002,
          1.36563882e-001, 3.70044053e-001, 3.78854632e-001,
          1.14537440e-001, 2.11453751e-001, 2.73127764e-001,
          2.86343604e-001, 2.29074895e-001, 4.11894292e-001,
          3.81057262e-001, 2.44493395e-001, 2.62114525e-001,
          2.40088105e-001, 2.53303975e-001, 5.50660789e-001,
          4.49339211e-001 ]
      - [ 7.94223845e-002, 0., 7.22021656e-003, 8.30324888e-002,
          3.97111923e-002, 1.31768957e-001, 1.37184113e-001,
          3.24909762e-002, 6.31768927e-002, 1.13718413e-001,
          1.04693137e-001, 7.58122727e-002, 8.12274367e-002, 0., 0.,
          5.05415164e-002, 1.69675097e-001, 3.41155231e-001,
          3.57400715e-001, 1.31768957e-001, 2.63537914e-001,
          2.45487362e-001, 2.49097466e-001, 2.41877258e-001,
          3.66425991e-001, 4.15162444e-001, 2.50902534e-001,
          2.59927809e-001, 2.58122742e-001, 2.31046930e-001,
          4.87364620e-001, 5.12635350e-001 ]
      - [ 1.06941842e-001, 7.50469044e-003, 0., 0., 6.00375235e-002,
          1.46341458e-001, 7.50469044e-002, 6.75422102e-002,
          7.31707290e-002, 1.51969984e-001, 9.38086286e-002,
          1.01313323e-001, 1.06941842e-001, 9.38086305e-003, 0., 0.,
          1.14446536e-001, 3.48968089e-001, 4.20262665e-001,
          1.16322704e-001, 3.47091943e-001, 3.15196991e-001,
          1.68855533e-001, 1.68855533e-001, 3.47091913e-001,
          3.33958745e-001, 3.20825517e-001, 1.42589122e-001,
          3.41463417e-001, 1.95121944e-001, 4.67166960e-001,
          5.32833040e-001 ]
      - [ 9.94371474e-002, 5.62851783e-003, 0., 0., 6.56660423e-002,
          1.42589122e-001, 7.50469044e-002, 6.56660423e-002,
          7.31707290e-002, 1.51969984e-001, 1.05065666e-001,
          1.01313323e-001, 1.06941842e-001, 7.50469044e-003, 0., 0.,
          1.05065666e-001, 3.48968118e-001, 4.31519687e-001,
          1.14446536e-001, 3.45215768e-001, 3.07692319e-001,
          1.80112571e-001, 1.66979373e-001, 3.47091943e-001,
